{"netlength": 4, "netshape": [784, 100, 100, 10], "biases": [[1.11218022784831, -0.7466172497449308, 0.7337827963720503, 0.7505996038247212, -1.1226131392283083, 1.969471049147998, 0.18122050931697206, 0.3706313908810704, -1.9756690806268848, -0.26863691433556053, -0.3440442012780912, 0.5530573412853165, -1.040573635402765, 0.2598256178019197, -0.21716697897959417, -4.9559762749596254, -1.3630803337805335, -1.6579663169976078, 0.05197549864325872, -1.0766538928368794, 1.5198366644880517, -1.683564816053138, -0.2626034536074344, -1.4994858192914529, 0.2360441604312288, 0.5812401573584017, -0.9531534340312713, 1.340622524650335, -0.3157767003058071, 0.44737226890139975, -3.2908644724210903, -0.35371987606693206, -0.6231728643831353, 0.9351015757605536, -1.1975440735491323, 2.4622502327350544, -0.5219481965997708, -0.4547052746205171, 0.25916391262047234, -0.12551266352879312, -0.037996548620332346, 1.4829591023651179, 0.5064878653251828, -0.6625124776988323, -0.329505377844994, 0.5131323654573018, -2.839999333357409, 1.7402514533038766, 0.5266492310507904, 1.0625399866925223, 0.1533187724218804, -1.685321732424649, 1.6954785867230056, -0.5304156938817761, 0.40612274376279534, -0.6357929883625252, -0.8131006617665528, -0.9252666111885071, 0.7273134950353456, 1.651367360365308, -0.014102908238108969, -1.9279409193270602, -0.6633938870938298, -0.4109668012157864, -1.1298922673990939, 0.7502817409979401, -0.34968165827913256, -0.15399464529843668, -0.8622320987270855, 1.4610895480955932, 0.6893268004918764, -0.9839851024357804, 1.6705718647768657, -0.14696257278002833, 0.7655070064141049, -0.4182171910177942, -0.2242678024639187, 0.9804311475575643, -0.5027818785590759, 0.517182706326217, 0.244202488884967, 0.8233799289306263, -0.5994369968787413, -0.26083851792319945, -1.7617311246454699, 1.6009527726986152, 0.7451692240978469, 0.5286470477464457, -0.3964593726527356, 0.9098691254243221, -1.5357891817418001, -1.4330617328924486, 0.07075322589518349, 0.013224479272174652, -3.0516913782115584, 0.6534146057079939, 0.9192666759214962, 0.3414569543820441, -0.2237075730772198, 0.6001931507214894], [-0.8878254369467445, 0.37228809179048444, 0.5892184307550082, -0.7063907499913858, -0.11293277324180094, 0.1608640451558807, -0.9923010320175134, -0.5967225864347359, 0.5445333772872066, 0.1412536475089734, 0.3941428320364675, 0.8590004486299999, -0.026784520261863273, 0.13105061310144003, 0.26056712537484156, 0.13022920082325362, -2.411493964339185, 1.1801893501776202, -1.3541003193861938, -1.3445968979584517, -1.2230532932910956, 0.877515800178151, 1.7439947429110985, -0.06513008904359584, 0.703325957327488, 2.0505041489450067, 0.4247984153019006, -0.718824958491161, -2.5308191273498357, 2.6359778741622586, -0.4167206036216793, 0.043086748746538416, -0.10340660813113792, -1.2375249838310256, 0.10312038152998904, -0.07646116184924036, 0.1266670270370372, -1.2973049766251141, -0.3927997475317979, -0.1911292032001514, -0.012373695336436263, -0.22837988292072098, 2.9525290253960823, -0.0008045502727303956, -0.6019575079444377, -1.1540021306276413, -2.016098315006879, 0.9175591709183327, 0.2448989714473126, 0.436738200044681, 0.04264400253384366, 0.8277017817530324, -0.5213204915879995, 0.6301533809913845, -1.8843525465132844, 0.08132301659197898, -0.5810452275958917, -1.4337185983671186, 0.1576996593280698, -0.9428884673499416, -0.5048186311380646, -0.9187115450133699, -0.27491665100441565, 0.7605916403820396, -1.947849932918558, -0.9228294269043683, -0.28989291858636834, 0.3777796278101049, 1.2694339310155665, -0.9704713728144996, -1.6998603771323373, -0.3211518643355316, 0.2348143104337478, -0.6664812498837758, 0.20387165194531176, -0.12953915241682637, 0.6955348330037453, 1.405085631137565, -0.5736856926937918, 0.6019385628804119, 0.8362027847587963, 1.044344063558243, 0.1065084318799064, -0.751877650618077, 2.4458367881070213, -0.8991323011208122, -1.1421494945954507, -0.3266726778648338, 1.8774316524925134, 1.204059165743084, 1.4573908259377566, -0.3536051231009173, -1.1322554977307429, -1.5146711606942833, -0.01124629596097649, 0.07547957011551847, -1.9323008678282452, 0.5072055849006263, -0.10977470862396893, -0.3910324563517963], [-2.344399742852104, 0.404305867239631, 0.3750518495486322, 0.10122402374650472, -0.5054344193527655, 0.3954558531791232, 0.032685806160636925, -1.941045251120678, 1.518733692367492, 0.04330680475968141]], "weights": [[[-0.0008396428846017876, -0.0032544879169161007, 0.0015954964926786473, 0.0006172083773399501, -0.0009652227200663343, -0.0003796040326285327, -0.0022328289148682294, 0.0025140330609336, -0.002330906796034311, 0.001481979343996354, 0.0014426017697063557, -0.002674253957187025, -0.004731296193458642, -0.007021028822076643, 0.00017546646787653354, 0.00025715273045164407, -0.0005031807515243214, 0.0013426761533432503, 7.999026189858707e-05, -0.0011289828625350308, -0.0019016464470182177, 0.00025892245123174736, -0.0013821226861047457, 0.0003668589651617322, 0.003138856376528755, -0.005237399907498552, -0.000958232664405561, -0.002616524118406388, 0.004147123506376031, 0.0028964373744167237, -0.0007097736573160096, 0.0011101508629771488, 0.0004388449340474399, 0.0006515046242348237, -0.0018479544090574782, -0.0021553729159362834, -0.004202743681683237, -0.000662678559349094, -0.0029028176341239667, -0.00723279306586534, -0.019885140915248564, -0.0212937114813586, -0.017313790032934574, -0.023106206864919595, -0.008082916868378715, -0.0051722871606945066, -0.00876786614271928, -0.017391264049195432, -0.014007809837695303, -0.00705463336902583, -0.004638682286619885, -0.002360585470585869, -0.0020824097936272836, -2.9570171936607927e-06, -0.001819359936483389, 0.0015751537958560108, -0.0009957383449146974, 0.002000779066801863, -0.0015323520565495717, 0.000610694656488626, 0.0022391812083582875, 0.0010289481346787291, 0.0003381479262176352, -0.006074040854827076, -0.017823871633359172, -0.025668917976284955, -0.03367354781923366, -0.055112687388559685, -0.04292316886174151, -0.10497454496706118, -0.07626670212204051, -0.09623598308966225, -0.09582328165861406, -0.03860117317233381, -0.011879142537890075, -0.023132906204967132, -0.000591600364136446, -0.005183990862520709, -0.012129130098687806, -0.003546106235335946, -0.0044819221929487734, -0.005287735688926008, 0.00040927689145265066, 0.0040882347798148755, -0.0023411364889360333, -0.00050082996928771, -0.0045991737577190965, -0.002065611912045187, -0.001577635685802758, -0.02572874986308239, -0.06790315069252875, -0.04901090541574697, -0.03153613503439462, -0.08356870796359624, -0.05042051536738088, -0.0028205020849536625, 0.06479466058618859, -0.06421213293809784, -0.11332842989810873, -0.18120684655269698, -0.13520332468318125, -0.06232219031272126, -0.09203135324424108, -0.029251115880997762, 0.0444279797107555, 0.02955822332029424, 0.003209865089257105, 0.00939210025186148, 0.010603436984678413, 0.0005389424448322725, 6.112873640666498e-05, -0.004447215520808994, 0.0013960364360035475, -0.0004260950405984323, 0.001464852680448356, -0.0024331566873604096, -0.014594923091270659, -0.10306082307242573, -0.0706352153161612, -0.07003458580244881, -0.06569388896039106, 0.016536417003329428, 0.03416246468980699, 0.15691221563017987, 0.16729260663653314, -0.10693314256719613, -0.043851355588794355, -0.05224316262525892, 0.007427030968170623, 0.10942545539539547, 0.14725933993401327, 0.1649596880358717, 0.20870500125316332, 0.16236336432272364, 0.1303948174074296, 0.08720896653408286, 0.044674329124731134, 0.014180109641708832, 0.0049565920215285, 0.0011499997634406732, 0.004441265135855521, 0.0003536542901417802, -0.002574319813097046, -0.0019051427877851818, -0.08598219055229817, -0.18511133918961256, -0.1372934504303135, -0.08408181812527384, -0.04071468070035522, 0.06382739791059254, 0.12620758983900443, 0.15746912000114727, -0.028812762124515383, -0.05795387904790007, 0.030639853320113902, -0.04317184872907922, -0.09526754044046924, 0.08824600630322059, 0.4824219478491201, 0.31817710354294343, 0.3040076907055728, 0.23632779295490536, 0.21648624823859472, 0.10763549539596313, 0.04779928382263717, 0.01563382101093959, 0.005374954456752854, -0.0007062148469845037, -0.00038675942246406175, -0.00020410918084815834, 0.006713629789843959, -0.012455859645641078, -0.08807962599891647, -0.13943079144347426, -0.06705698101126029, 0.04250099776538289, 0.13534377321577104, -0.04974239913680974, 0.006271309362357727, 0.027672491823602752, 0.037385131387913086, 0.004190097912021509, -0.03918955968771241, -0.2237510678956978, -0.09403266556948214, 0.1657711567989171, 0.42086865339099333, 0.4321717967313004, 0.3230886256673206, 0.1851456578882184, 0.1802824857681253, 0.07092804269768287, 0.027365470177394952, 0.04626666395050098, 0.0016749595392102949, 0.0008381304090237401, 0.00035474181283933143, 0.001318442486864174, 0.005711128361819837, -0.011954190165452905, -0.07303393061424197, -0.08603326803855942, 0.05401365610505048, -0.003999066175774094, 0.1764748230217744, 0.002538032045304736, 0.0032877667094951086, 0.09162991955796573, -0.032142611208546175, -0.005972414771830034, -0.14858671387999625, -0.21698150409920233, -0.004190310111659392, 0.27022697485684183, 0.4214780768559683, 0.4791331383848496, 0.3306138827469263, 0.24509958446243152, 0.19111633687987664, 0.03469387690767261, 0.0005783219979501418, 0.051100470758103846, 0.003477170302113622, 0.003924830169213519, 0.0008248390029874196, -0.005573165965396483, 0.002845979770035297, -0.005090803223015655, -0.09051841010288902, -0.09062355287383725, 0.0745461742050116, -0.04862020188257331, -0.03524270617140458, -0.020394736258220577, 0.07958106639391709, 0.23691868725704424, 0.06409311480237057, 0.021583064451197675, -0.06832505413056043, -0.1160797925004533, 0.33370407832600774, 0.36029319347364785, 0.4714797081325204, 0.23041061220627249, 0.08449319356101913, 0.14187598869019336, 0.09585270587709678, 0.04852593308811357, 0.05452921759193986, 0.06414875445808531, 0.01799809850372153, 0.009402393479035213, -0.0034042798917675358, -0.005617008173023871, -0.010141690700025371, -0.006904346731549521, -0.11657816857653619, -0.10529956447831697, 0.08588961199522761, 0.028982724508723315, -0.040264070425771514, -0.033104928052578045, 0.23703419827930672, 0.08964489798622785, 0.07889375199182826, -0.14863665421408642, -0.3670593676497596, 0.0536773648797984, 0.3415194051192077, 0.23003924490685831, 0.3937896261669495, 0.2198693682759243, -0.05642619811385517, -0.06801022115500509, 0.01580085803039018, -0.011644532045066564, 0.06683382333869443, 0.04272377468886854, 0.024147141663270987, -0.032521477481888134, 0.0011286813926669596, -0.0007845977507630077, -0.010089874065455619, -0.015176114229416733, -0.05419990425812014, -0.06206086709848775, 0.1658008757733356, 0.011789165323204207, -0.03918109472046715, 0.006841583813780008, 0.13991100049860133, -0.022185801999046507, 0.02520580111048493, -0.2997757499832646, -0.06314846046447518, 0.1811479415006205, 0.2818080490707109, 0.07997945551422338, 0.15266814472482743, 0.027381600976162553, -0.08448646664977061, -0.013599386197721396, -0.0442227273480105, -0.05460251995204168, -0.012277084418586026, 0.05864955499091964, 0.018654823235554684, -0.0004909723890433492, 0.001223651122186343, -0.003200346672444409, -0.05154806804389229, -0.0562532473459466, -0.13594721842245666, -0.12805546478554006, 0.09765232508390838, -0.015152476988791401, 0.008613702060982519, -0.04251428906712275, 0.021458033661996376, -0.09703659203247501, -0.02196378095935542, -0.17356554973804028, -0.12014916376213798, 0.1892007432654177, 0.1693866726561516, 0.0770898397727482, -0.03518521985344199, -0.11899697520518077, -0.20332186263013582, -0.1866484853801808, -0.16333376562015253, -0.033165162374883914, 0.08482581688114148, 0.052428112316553775, 0.04579012463724837, 0.0036461372630326823, 0.0016519958924167586, -0.004280508731682262, -0.027133788739268194, -0.03858473025929143, -0.06078141077055995, -0.007158641346521049, 0.0866109973041874, -0.09147625498046649, -0.20547724071591175, 0.039986558232182265, -0.012797409266754083, -0.10148458053347088, 0.03954642625441414, -0.0404281945563789, -0.16781383235618902, -0.15466056408472145, -0.10102997372332749, 0.08893239564068471, -0.11222080651745385, -0.283916899291129, -0.22427723737073954, -0.12708610678818513, -0.16358711725928954, -0.06721325104859895, -0.07941817156929432, -0.02444145573131677, 0.005939659548589446, -0.00783948357733627, 0.0011216189084520692, -0.0018608938287668626, -0.026434416153415807, -0.015406352878987008, -0.05658344563612709, -0.0009052926833321311, -0.1131118633695694, -0.060590860144170755, -0.13082747511771606, 0.0661347737344394, 0.13511494738340976, 0.03427198218475603, 0.02137486635989528, -0.024293223769667027, -0.13851362708254641, -0.19601124694258334, -0.2564629860404044, -0.0924257110065932, -0.15196152359980872, -0.2520331956980309, -0.22289873156066325, -0.14557014088631742, -0.13057981614354505, -0.19626818211338945, -0.13408655070375214, -0.024694025074031626, 0.004615920902949825, 0.0005913982348743362, -0.0009493411501957924, 0.0029302864439750076, -0.011834499955057028, -0.021440015575822466, 0.005798040252168851, 0.015035258719137157, -0.0716394444798484, 0.026571824193646558, -0.13743273146477783, 0.0049587344984016865, 0.06666375594214725, 0.15419917962475327, 0.07030373926838353, -0.004236645448393639, -0.0592324073672256, -0.1495404629132841, -0.1802313169179464, -0.055737791587782255, -0.04508400020079095, -0.056351209884006145, -0.2639881677628901, -0.22545422919794306, -0.2323025866806378, -0.2321704644412382, 0.023156027012098145, -0.02951602668425775, 0.011837927873849657, 0.001558385331605471, 0.0005200339856052032, 0.0002170607180403712, -0.004677027615276946, -0.004720453464722365, 0.09052000742068624, 0.11842682320439057, -0.017851035445513128, 0.02904885579353456, 0.04168850141787398, 0.05008548127868757, 0.1404072242606115, 0.12252596199517854, 0.1839388687779942, -0.022037079887866927, -0.14520553177614107, 0.03136538917588933, 0.12885277180822635, -0.09522865015092234, -0.026639740131949696, -0.10886347496889305, -0.2995840149971322, -0.19895334116149094, -0.1955046163465563, 0.04172551627553492, 0.049343870404390006, -0.038565159979510745, 0.014417382799597157, -0.0008213865119920775, -0.0026333648685994797, -0.0030110178272993605, -0.005188285080310405, 0.009421900188981442, 0.0532140248278987, 0.05170381556415761, -0.010047003649047297, -0.01009128524262232, 0.03635065206344002, 0.1809849802084427, 0.021816956735841397, -0.032701105709064295, 0.36025719354323593, -0.040768783316881316, -0.22255488979932903, 0.08028894717238491, 0.0666125427739879, 0.09930435723864534, 0.01215600908882709, -0.12547346579265553, -0.1582862292011344, -0.07302524473492522, 0.06187297620271928, 0.12208345731530842, -0.0228783548569862, -0.06956349866918984, 0.014190340108857525, 0.004974327033390727, -0.0006336926087116427, 0.0012739526651490093, -0.000806775314177799, 0.016152361225888673, 0.03479147475344612, 0.13372924822945112, 0.12367339959216209, 0.05737279625013516, 0.022945433711149172, 0.34548435330733035, 0.05968995477618362, 0.10605791321377353, 0.31213524544722043, -0.1343188049434299, -0.09817395813722828, 0.05810847613017296, -0.011098765153890614, 0.17817829906847277, 0.005572810860616806, 0.11757648974684287, 0.05365783818744856, -0.09379443670703036, -0.04888738656316023, 0.06597445989265613, 0.12642635897826174, -0.018283253445440906, 0.008516326774629601, 0.012911013144931194, 0.0028205573637046094, 0.0006883133649065271, 0.00015700014720202912, 0.02061478724965228, 0.0060299218400293704, 0.14495209395769748, 0.2945281590460174, 0.22594799231781934, 0.0017705810580952662, 0.350660152433981, 0.24460477882819037, 0.1676022607838989, -0.07072870349128176, -0.2622908397816175, -0.2018898363645684, -0.027144272471465784, -0.09271142581903473, -0.12551020004298022, -0.091689344865599, -0.01678823578162304, 0.05717154278538729, -0.06038721142629322, 0.08840890097918552, 0.06134136812919268, 0.16501484788365894, -0.0011805932236123062, 0.0006509700189347528, -0.0023659946313212997, 0.0003290098120497198, 0.0013598555996760346, 0.0127402006596844, 0.03229307716716027, -0.009085961410738143, 0.08620231255713647, 0.1997907721882402, 0.14381288166385028, 0.11532874557712447, 0.13407199789807053, 0.16110436126790953, -0.05155442285499183, -0.025530060119953457, -0.08973941671304661, -0.18582959529273688, -0.05874679030560695, -0.04672489547609675, -0.1868984509682235, -0.2456218170373921, -0.07960599336945573, 0.029548106939312677, 0.11188175228808486, 0.16266531783752186, 0.053824892851697524, 0.07373460453713943, 0.013441711370660464, 0.006843812405729499, -0.0006137805115450558, -0.001448861699284176, 0.00024363499231762323, 0.011101262161587609, 0.022922156273611657, 0.02984569894077667, 0.07151014063868014, 0.07046172064961431, 0.11326427613131104, 0.27012792801579755, 0.03814522777925422, 0.0539061295993842, -0.07297621140240255, -0.04504523094890484, -0.12434948138421317, -0.3293315062099105, -0.2207138510893776, -0.15377929852718228, -0.22161052685324434, -0.33523880565909503, 0.06477529046129159, -0.023879160681177222, 0.05360590956515312, 0.08016923225389998, 0.10090329343642634, 0.008397108626902985, 0.015052622866900378, 0.001455907745291753, 0.0007816857936184203, 0.002890345509807901, 0.0005422983539073714, 2.520478412395582e-05, 0.014389889734880312, 0.057770360781281005, 0.10838760076083526, 0.07400273063991265, 0.15810320047897247, 0.13071862042698343, 0.08140655811944467, 0.0061283716610692224, 0.14896464016330724, 0.17875898853613878, 0.05369862839918343, -0.06477434286845397, -0.17407623154352372, -0.2484846544911998, -0.09902709435089932, -0.13978384093292137, 0.008900900848451783, 0.05998551146256537, 0.11116589363462386, 0.16415852029703007, 0.1322616103832939, 0.03920568479010113, -0.028496611319767433, 0.003117537598889813, -0.00021082472608682963, -0.0010123862792874082, -0.0013057768772714187, -0.0005547002140105127, 0.019317897024195452, 0.0057375745226967215, 0.02395164193737097, 0.04051483065492697, 0.006775247112854171, 0.05728952734997018, 0.011416568987234966, 0.06956029286212148, 0.18488413598158962, 0.17642416547574594, 0.1307858220465836, 0.24178465214827294, -0.11223582359661194, 0.027572289711208117, 0.08513688844202934, 0.04047750530483913, 0.11257915821806093, 0.15466059476871605, 0.2102970691287042, 0.19930472295238263, 0.1322168321040671, 0.06315419659822587, -0.009082232628487953, -0.00019857687604119296, 0.0009806699723856496, 0.0018349350974692646, -0.0007178717132679951, 0.002099740570096425, 0.012033862058058675, 0.005441579986835245, 0.0012695509105016601, -0.05601571330953843, -0.010073915505854084, 0.17093892714677975, -0.015159221391465949, 0.10913524804011343, 0.13578441249265064, 0.08252268109246666, 0.16029396191884385, 0.16097949458281088, 0.10134586009119399, 0.22067584062344447, 0.20017708360156003, 0.198936973501364, 0.037341544092491026, 0.03158402754156251, 0.05540106195078887, 0.0989427556479409, 0.05631326916914949, 0.06676747790941723, 0.007100404223380068, -0.001097875580737641, -0.0006425896367539224, -8.755694872501725e-05, 0.0013489796044641048, -0.002240039421173646, -0.0072434247696095445, -0.007034962022997432, -0.03141622288691176, -0.10859267540513994, -0.06753637425903367, 0.035108986407551925, 0.016966655370126364, -0.04125965132571216, -0.0522982439908004, 0.12586882305450162, 0.1943447801684082, 0.06158883757073596, 0.05646783754388048, 0.030268034097245107, -0.03729583856655249, 0.09450190593168958, 0.02405776992511868, 0.03028220759059113, -0.03442108327462639, -0.005892587252805433, 0.0055302395956351325, 0.0030734837459538604, 0.0015826585920201055, 0.002813262951638149, -0.002474211742221768, -0.000817627288598123, -0.004727645638428775, 0.000929323905359105, 0.0010516567297721492, -0.005915231257365863, -0.005954881931681701, -0.04235859036806394, -0.05825213666454394, -0.04903433817272898, -0.01928988694554466, 0.0624336164222086, 0.0976364920189672, 0.0915118305866381, 0.08384013797944062, 0.007753810628327347, 0.13390258828500842, 0.11189750779675661, 0.08103529690918189, 0.06699889810686767, 0.014320482899844543, 0.016326365661061912, -0.01131958535035119, -0.02173278396157815, 0.000104576158122441, 0.001820305567455022, 0.0026353886659702414, -0.0013545313420687502, -0.000761614316716518, 0.0014667532975607132, 0.0018965763141817488, -0.00022799536692616782, -0.00042693037148216437, 0.0013322916669692819, 0.011783997735732922, 0.00497566849984629, 0.0073583561993836215, 0.011902445356742382, 0.0005770425391139136, 0.03355497845934655, 0.03569939563963086, 0.06059368763077673, 0.04366263399699446, 0.05379938624475877, -0.012023911579769538, -0.017098623258043094, 0.07858178520372604, 0.03164163395927331, -0.02740305841138191, 0.0012480733200706863, -0.009292965531162373, -0.0060348200833259215, 0.0017784004050014513, -0.0006780180908651808, 0.0001529046506940514, -0.0003546211649068777, 3.702260410194891e-05, -1.2018274370390706e-05, -0.0005763152179125633, -0.0003360084641038299, -0.0006970271750266221, -0.0014234995992223442, -0.0014872388823901307, -0.0004554427831916603, 0.0031168874224661294, 0.0013451191780873499, -0.006484903184595901, -0.011704226611027636, -0.000743784086884564, -0.0024605387583680172, -0.005677917503112367, 0.010982111620965197, 0.028102674345338027, -0.008372390775603726, -0.011240203450928809, -0.009275599022854915, -0.022160857716119583, -0.01272824978865056, -0.019244701246427614, -0.012158812650787368, -0.002268464488698651, 0.005493006330494649, -0.0002789461474227259, -0.0012344506635855823, 0.0021745748665280298], [-0.00013956929006772438, -0.002012402851253215, 0.0020748897511729944, -0.001175953208278365, -0.0007379315016230655, -0.0012295798072262062, 0.002875578266630787, 8.036874924924221e-05, 0.0010374943113148464, 0.0009576323627697816, -0.0006870198338529098, 0.0032346628470930347, 0.002908760244284574, -0.0023255540945591627, 2.493601275703616e-05, -0.0010322409936677638, 0.00030975523533241923, 0.0009086852403999065, 0.0009099869196155713, -0.0007070479877931028, 0.0014955563936829746, 0.0010647351321684845, 0.0015805382198449806, -0.00014252356473976475, 0.001225455150264111, -0.0028074045240412196, -0.003099363702895285, -0.001861974958644958, 0.0032357976934989756, -0.0035612273193609224, -0.002238037165556138, 0.0012357711940085437, 0.0009863433230334507, 0.0014429224117826374, -0.0021424977392105345, 0.0008667044750602882, 0.0028347353176544844, 0.0021586629953995826, 0.00024250901909606007, 0.003369144237394057, 0.003836768839832036, 0.0008605752792624639, 0.003049894248388452, 0.001896263552446908, 0.018768707049090356, 0.004823451512555336, -0.00012488940706534122, -0.0008775311958798051, 0.002125588546969612, 0.0011377556532510844, -0.0006247648772009715, -0.002025468906235408, 1.659108505848438e-05, -0.0007004193340346916, -0.0019724603237990562, 0.0005839172429830813, 0.0023319188113135165, -0.001190701922524701, -0.0029065422757416463, -0.002200113152068226, 0.00147660585811695, -0.0012705610716043283, 0.001181038851918184, 0.0008988212389257633, -0.0050661351614452715, -0.01312083398581445, -0.006489683696419355, 0.0025200844588227464, 0.000748806834078761, -0.007970728345925462, 0.0024964126324383607, -0.007339732042695264, 0.011434862068057319, -0.022954278226804174, -0.0295095979643635, -0.014779826150955057, -0.00907048271953208, -0.004784407414629029, -0.0037248257767005604, -0.0024850889531099424, -0.003996009945294077, 0.0011641161666798286, -0.00028599568717142267, -0.002599072403337161, -0.0017179341214959257, -0.0010397091837328158, 0.0004595260150343802, 0.0012698007046554028, 0.0007858245298773455, 0.011339586652301574, 0.006474272791255707, 0.0033934588702143275, -0.00022732994770790002, -0.04109643498155107, -0.01914686221944451, 0.015503558025639423, 0.06936901109392533, 0.11616140563583778, 0.17197956380765297, 0.08611909048881226, 0.10402307064957894, 0.07938921034081005, 0.018243252281235293, -0.04732969966526018, 0.027121330244578218, -0.050963959683098504, -0.054394962446774726, -0.020923666891353755, -0.008588758355659473, 0.001490549803896684, 0.0009728290418251059, 0.001393179935576665, 0.001328317255537238, 0.002159605733540488, 0.0018344284721886885, -0.001141903360597207, 0.0008584660674273722, -0.004401226393184792, -0.004255287749961418, 0.018041169998079875, 0.04178779012501717, 0.01969346446508209, 0.05821318885522201, 0.16863492741675765, 0.2823603982087088, 0.3241338760736118, 0.22906210535598967, 0.23790702981211784, 0.10710743870247125, -0.03256752550902454, 0.01931057687263396, -0.02517187033007244, -0.03445557613670091, -0.0352911483794613, -0.0406076685187037, -0.08760023135692793, -0.050242837143559003, -0.011815364664393804, -0.0006316865834856231, -0.0018178779444406325, -0.0018209224311685273, 0.0007467134646535927, -0.001977998202191243, 0.0021097407577369983, 0.006677708302582905, -0.001405986463253064, 0.006748995235118587, 0.030849812870992626, 0.03137970445855073, 0.00472529835550172, 0.04078833536616964, 0.07108954398910572, 0.14949485177370458, 0.23082678443316484, 0.17533686205156304, 0.31999435172731716, 0.14156687542282145, -0.10946717240909085, -0.06998709940579799, -0.038267461616369056, -0.19170047602619542, -0.08657012902722493, -0.01987016566128992, -0.08361302987330338, -0.07640459504423266, -0.00814052529129276, -0.003154776043272219, -0.0062426921513641705, 0.00020348847060179404, -0.0012101914394353763, -0.0009010393722788576, 0.00013778226169493076, -0.005420621580496197, 0.005070972286667264, -0.03547988564087624, -0.08910832065676394, -0.15076902503274228, -0.27446927782074215, -0.23194600291094464, -0.26225329785975177, -0.19253148311789367, -0.045938378034763375, -0.0691073173002306, -0.05543960973650222, 0.01707452288836641, 0.111776059301898, 0.2547828827840477, 0.11016747837550492, -0.03538983726356554, 0.036595244030989786, -0.02222236282155738, -0.10803346151509459, -0.07510634327481112, -0.04314356208810228, -0.02222568315583812, -0.01009173765574137, 0.001225078254180203, 0.0056131810416607045, -0.002155433063035749, 0.007041679030828283, -0.03259414677526921, -0.11837980955667605, -0.12053558371780661, -0.1196895069694204, -0.2827133802970095, -0.40827288742708717, -0.47675682518203694, -0.45731570086354256, -0.3705509608556482, -0.5056343072657188, -0.35768646153089434, -0.10933569246541354, 0.09858166789260213, 0.28971701040307596, 0.3583110906502392, 0.3384756317669157, 0.09275887618089905, -0.06289297314423084, -0.14445477774233326, -0.030812435799800673, -0.052867729286513086, -0.0402470779425404, -0.04406172009720857, -0.0037778007377980076, 0.001965453405365955, 0.0069836063570144855, -0.003231465069098926, -0.0006894257840740389, -0.04838332096388968, -0.12513564307588465, -0.04179881649804411, -0.0895341270205935, -0.17270865398664587, -0.3170465768740924, -0.3691139261320888, -0.42567639287892156, -0.37181387599820415, -0.35345729296781436, -0.22690871795909356, -0.002054508502835662, 0.09939297925110117, 0.00033862890066920295, 0.18165406181964558, 0.2356104998161069, 0.21653673441068064, 0.12318225970388035, -0.011386294691219545, -0.10028912624119614, -0.13992298025826677, -0.10889948098922013, -0.020678647665891968, -0.004336822488824492, 0.0016331135186531376, 0.003828633418619635, -0.0009845756263625047, 0.014739604292914568, -0.06431076220203248, -0.043458242400093675, 0.0009166929159937109, -0.1029945425209669, -0.09373330927429609, -0.12141826096504725, -0.1252323012410111, -0.09901594572390986, -0.05087587847164342, 0.0072577620484573745, -0.08513853720337643, -0.13670134401957137, -0.18455754368854602, -0.1416713563082367, -0.04648977101870414, 0.27191408772512093, 0.3222494910837193, 0.15601903310618273, 0.12465467738239067, -0.02774947514726302, -0.12423717063128274, -0.06849260218614946, -0.027007372063587633, 0.013035717575582804, -0.0011609051323594845, 0.005216405959946695, 0.011341971476269344, 0.04220876370829209, -0.007861789274021754, -0.06725693546531655, 0.01155009560992884, 0.05672855346363401, 0.10394778706405416, 0.13607076256514763, 0.14020792645366956, 0.15361896296803904, 0.20011345012006665, 0.19725407773498765, 0.01182602123115429, 0.010085892972355934, -0.039274326638475646, -0.17590297664901447, -0.09168890208681575, 0.01763409774805872, 0.30878008861854295, 0.22434822537208648, 0.23920375193603088, 0.04649078336103524, -0.11013599954769074, -0.06842657423102803, -0.02921353688532561, 0.005292375525919518, 0.0012076741685046466, 0.001064337580225081, 0.027854743211767646, 0.09120881482526677, 0.084640289866971, -0.06325213318604364, -0.0030780423027914564, 0.20713484017925457, 0.32074732524873517, 0.191454695569995, 0.26195411439254723, 0.1543661825504068, 0.017115491380451448, 0.07032570963905031, 0.18435215695173066, 0.08453797672638007, -0.25610061846677595, -0.03112783884045328, -0.011132066523644367, 0.013244177544595804, 0.24526367641024652, 0.18514163783903972, 0.1569113417001696, -0.003559373384887927, -0.04491533238033748, -0.06578782195480594, -0.0090029842969, 0.0009076582727723516, -0.002541658334957916, 0.0025311339754980453, 0.017423052246065412, 0.08460003460292458, 0.10799813327402662, 0.05643599882933876, 0.039690750075083575, 0.050379823098729806, 0.16845334891403813, 0.12905481723728568, 0.13276875134314586, 0.027893498171292056, 0.011189517576571944, -0.058749642776814215, 0.09270340185091952, -0.008702536271069492, -0.05452224684970435, -0.02141397917971606, 0.05649940276191271, 0.06316376652859905, 0.0968447541259743, 0.02876632259723717, -0.0029163549039583837, 0.062232823309049445, 0.01133849786286246, -0.026806884877973395, 0.019191400849552825, 0.011310901084500469, -0.005387907345687672, 0.00501915096860723, 0.024110392630573824, 0.06611739365256633, 0.14945201648702555, 0.10743434496505468, 0.0768538486605839, -0.037108006268969825, -0.004522205749130404, -0.06661003997328223, -0.17691581894580288, -0.15149831664399954, -0.13321469305260433, -0.14722953060195024, 0.04485810018534645, -0.055330978884335566, -0.056796528460204505, -0.10786672034073427, 0.06904866312235232, 0.10280892441805223, 0.07570806090775141, 0.03558226351746976, -0.02277599913254223, -0.014752087717268053, 0.0031528568586462803, 0.017471988339651964, 0.014614878908994211, -0.0036286350960092095, -0.0016763055216037336, 0.009403616355377604, 0.013071691113141316, 0.011218038517548094, -0.00909559744908306, 0.09362644034195466, -0.014526964969494436, -0.0981879293148645, -0.02647503494255653, -0.13840868438583936, -0.16671752494230382, -0.15240142927084552, -0.14149484175690155, -0.02308914080160314, -0.042892554231697265, -0.1317192037072534, -0.2279500999293599, 0.07101548462200287, 0.03704750463946608, 0.09064006029178977, 0.1803580618121363, 0.10553560195109966, -0.004831634750495922, 0.06471830795956154, 0.006298533821767502, -0.009407879725716974, 0.001931987455546955, 0.0003842471027792605, 0.002107359042590671, 0.007502088224978329, 0.002988436322286089, -0.04087563895033601, -0.07946622908632071, 0.035476418075873505, -0.042160788172155884, -0.11281211222992107, -0.07559114024128188, -0.040311096923884834, -0.03568487193588484, -0.16609505165479424, -0.13941771677582304, 0.03331583981837225, -0.08283945675005794, 0.022683360068518996, -0.022188380002749235, -0.10012759302730787, 0.05353199438835755, 0.14636104195929478, 0.17176684911225867, 0.01458323765173672, 0.0069689948844948325, 0.07113547704162758, 0.05951573242320448, -0.031452479833818124, -0.009849249723914745, -0.000736510725360474, 0.001199378029016581, 0.0035441539710336285, 0.013729406849920021, -0.01127879113525749, 0.0072711317999401255, -0.03195923527848879, -0.09917612448099426, -0.0685003846091846, 0.07751643777865355, 0.12496966704448768, 0.03535212769244578, -0.16127716777948875, -0.11336530317464809, 0.0584813842401888, 0.01572588406247158, 0.009844122934855495, -0.02158914268966126, 0.003859861732503594, -0.030279361023343006, 0.022568364906873632, 0.04015429983230374, -0.10891524859358219, -0.02448308502146529, -0.015357435048760314, 0.040868063655353136, -0.07015586521626295, -0.007825761429050943, -3.915023853872777e-05, 0.00028239889227516527, 0.0020875227120901096, 0.009733394680613, 0.00730134946366113, -0.050540235348213114, -0.09545120997571385, -0.1042681783619754, 0.04961473195010791, -0.02437449757974813, 0.054683090280220496, 0.08096577987886276, 0.025804863858234668, -0.020809164695944887, 0.12174158448621167, -0.0092006599110173, 0.03973233338493855, 0.06333403835990267, 0.00423893862469921, -0.08703943902903347, 0.08767147744040314, -0.04748118258275303, -0.021620324653022428, 0.03188438463229655, -0.02747097356560668, 0.050017170277275334, -0.027312736981370732, -0.00018646828964538197, 0.007861080463603207, 0.001230185975025657, -0.0006878139750208827, 0.004279711229024071, 0.011845465610892308, -0.07741945590437108, -0.14621386201937997, -0.1474093613596705, -0.023841967540852535, 0.05374777085300837, 0.1005709774245798, 0.1593065383023437, 0.08962351133487154, -0.022799762018660207, 0.08841067342693133, 0.012425027819401734, 0.11758533235051248, 0.06066844058450731, -0.08137187040685838, -0.038412821761854656, 0.05208557062745154, -0.06511667509702566, -0.05190438727085797, 0.0046212908882926704, -0.07236955457541498, -0.011110173557341809, -0.012546396295158246, 0.0017429096736626597, 0.0012064137812364704, -0.0012892481391034902, 0.005423729835714176, -0.01121320687996815, -0.003898895796954811, 0.01865716509702649, 0.012501889684951601, -0.04784242398999318, -0.07293094382884753, 0.03974403498314226, 0.03720059004965559, 0.054891677650489905, -0.13466985935188516, -0.017741102931190456, -0.014032636119418868, -0.05037156613973002, -0.16123771622527983, -0.19423583809557818, 0.029989967356565603, 0.08374724402256997, 0.10531508748186962, -0.04864069391665077, -0.15882101930798606, -0.13612496811843694, -0.11884752902035992, 0.001968710372236404, -0.015083932346963851, -0.001871786333086668, -0.001800498747257601, -0.0012271734600161615, 0.006369566218276189, -0.018192978504123658, -0.010332304080019672, 0.06284518790510701, 0.009264959561366295, -0.06626516446707044, -0.042321235514883725, -0.05963137065195354, 0.03718899930360713, -0.043182661052526716, -0.09857216586535088, -0.031975133381538526, 0.09681017291365324, -0.04234406696546338, -0.2227904597997694, -0.0900558979135206, 0.035097098523396444, -0.03370110684365839, -0.08474380175337377, -0.17477854656002395, -0.1939380971463072, -0.18027036681607408, -0.1111708038545459, -0.009525786602624799, -0.0029787853297282836, -0.002422830583879382, -0.001076940406911302, 0.0004502193885152244, -0.004578681174923503, -0.013280978230132886, -0.006690406806979643, -0.0070171703516164466, -0.03151037053733651, -0.032329288767533576, -0.004644204671793084, -0.024615948488127155, 0.04044434153716436, 0.06562218480418386, -0.037226818062759216, 0.0699657668047567, 0.026022151962353475, -0.03882143530671261, -0.08560898977441898, -0.06314066874367738, -0.08752767073985576, -0.07519169137410632, -0.14274452367087576, -0.20384680012325357, -0.19593960157749096, -0.13724681575840225, -0.08507393834534235, -0.0319060921106491, -0.006604949386340549, 0.009285000065044393, -0.0010490410962541226, 0.001847590083768739, -0.0001712887295650848, -0.01299498302964439, -0.03965285992714635, -0.049232647224984424, -0.05288513901864015, 0.0012752943144171145, -0.02084054689233206, 0.032321811038292944, 0.10248384497412318, 0.019046490238831513, -0.040015597503384695, 0.12737241374072059, 0.029474373630113404, -0.004904210648854943, 0.024324169006987882, -0.03162146155489724, -0.006870112831574193, -0.15031037288818672, -0.16248451139708364, -0.20229586015152484, -0.15649376640131307, -0.09207286321620504, -0.040505392221710866, -0.010202923746421911, -0.005825794971944224, 0.0024685207414640318, -0.00022159508346405454, -0.0010782941902598147, 0.00280293767423401, -0.0010215945959577, -0.002216956749241388, -0.05631241086903296, -0.01822813803026359, -0.01922147666559199, 0.034704576342763756, -0.077927548413682, 0.0018026645390191718, -0.0870999795802673, -0.039294589192932904, -0.10355306082778218, -0.07416706751726973, 0.012065364629310953, 0.16257680287747125, 0.13966633438739368, 0.18650636957887248, -0.058527298398740206, -0.15148267060324175, -0.15490828326999018, -0.10815109519709243, -0.05384389639991443, -0.032150488560072056, 0.006576278200587813, -0.0032627398949468486, -0.0002416540626293255, 0.0005941539541932242, 0.0018541600457056176, -0.0024552314920566567, 0.00314804458840174, 0.021761346689461468, 0.059641227931280384, 0.12595646534179536, 0.08224366942945145, 0.07980337957323272, -6.716827446142477e-05, -0.14509515070585968, -0.06221596268707433, -0.17380324958023963, -0.13142500861575476, -0.1386876358507137, -0.08426830619401063, 0.0393457655035775, 0.04739472017022058, 0.05320045095659151, -0.1253286570432786, -0.0955990867167864, -0.03536766409925984, -0.020991836830864696, 0.003437036832174594, -0.008306029541994886, -0.004560341287820328, -0.0012128918497075038, 0.0020120192692639387, 0.0012021780799881462, -0.0011941187675159506, 0.0018686523001305196, 0.0016074262634439538, 0.004799149448307253, 0.04077692581255558, 0.07815822781096053, 0.049890233459559265, 0.10328726521702718, 0.13604624422292372, 0.08568310668074201, 0.008487487824779366, -0.0009194751795788845, -0.04231668492502828, -0.15103942576129858, 0.05131481504563322, 0.05481397338626819, 0.10396595565721478, 0.01281301840436191, -0.05228213696844101, 0.0480105899375712, 0.045038821932176135, 0.026690338142981728, 0.02015696633908348, -0.00401225626763516, -0.004188924773444484, -0.0008356367355128535, 0.0016063743671715074, -0.002618209375555264, 0.003034063598913345, 0.003018349196307815, -0.0002484186751453636, -0.0014244579973574987, -0.0016422346873776195, -0.004218975106656526, 0.019920650791503, 0.03889988157378839, 0.03645829022349677, 0.032598360429793596, 0.06494473736688862, 0.020182184204208597, -0.008179549437415083, 0.03799631551373188, 0.0794615181519479, 0.057662783061373526, 0.06215630840703392, 0.05446693781392402, 0.023117490587258028, 0.05455967118239742, 0.02539257423535513, 0.023308868725730448, 0.015406872547871564, -0.0004007836189762609, -0.0005415168895954429, 0.003583517970557051, 0.0015444745861635184, 0.001453712511260009, -0.0011620510688758554, 0.0032653821571008205, 0.0006914023016000865, -0.0018809055777151103, -0.0015655434372133091, -0.0024376721728568453, 0.002049229707629784, 0.005135912523279147, 0.0026829126471072167, -0.0014626741352195786, 0.012625507300508999, 0.0040637213183242924, -0.00629417274900442, 0.0034315144712799175, 0.01245154802864263, 0.0017282612996782373, 0.015196928118462507, 0.008369811702332657, 0.0035995664334545997, 0.0024727672013076045, -0.0033244385394331413, 0.010149430613297237, 0.01455782416658186, 0.004071164858819277, -7.223600855930419e-05, 0.001955824196905562, 0.001650417442705281, 0.0029325375301032367], [0.0011738042712770068, 0.00242044124545924, -0.0027376040413053704, -0.00017509534512464032, -0.0027334941943479288, 0.0008837874314941417, 0.0007377340998867261, -0.0013890909828544959, -0.003010769926039252, -5.439455106603656e-05, -0.003024225024487859, -0.0015246380757196944, 0.0011258948801118349, 0.0018945246441285637, 0.0019098547770125293, -0.0017723674224103295, 2.463423712224973e-05, -0.0003508504856128491, 0.00047540027769319034, -4.701091080137579e-05, -0.002056871151739219, -0.001276126630776523, 0.0015787621275700418, 0.0007192273018912756, 0.0006388467663199425, 0.0007175464990307215, -0.0010040885254737706, 0.0011923817670592104, -0.0024670568457310763, -0.0006970580607208141, 0.002146492556589394, -0.0016023612621419935, -0.0006331054214817419, 0.0017594826422871774, -0.002778867462041817, 0.0009962044606250217, 0.0005764525501171193, -0.0011829597359339287, -0.0013827459132484796, 0.0016740628686559692, 0.018462604284116217, 0.015935030075106264, 0.006165258898158344, 0.0074154641643064964, 0.02542533716100292, 0.01050164191784594, 0.0002486570192642109, 0.010369779905950432, 0.00869549161920719, 0.008771056421649746, -0.003074969064343628, -0.0023322811813762593, -0.0020256547930095096, -0.0016152748966092583, -0.00020975760587249156, 0.00030702579967174944, -0.004354099189363197, -0.0014054841855378193, 0.0023680104991596345, 0.0005363484265941132, 0.0024216187760209267, -0.0020945624543520806, 0.00036015636151972533, 0.0008979008943493883, 0.0023994040257814277, -0.006904168032768655, -0.009284356668856018, 0.016828915581387712, -0.005457732581191936, -0.062286999427141755, -0.009721244337633852, -0.003049053453855877, 0.034666345423523544, 0.07624245295535473, 0.07590732989208569, 0.008931212053605959, 0.01458000306128785, 0.021761904174861263, 0.007146126874255709, 0.00039883773334047393, 0.001738465958690316, -0.00021710052156017945, 8.182517041629026e-05, 0.002279201826466217, 0.00397872917412843, -0.0009249423561108697, 0.0006560845709446842, 0.0006181387686713945, -0.00015923608455410197, -0.01864268395795623, -0.010441560242178214, -0.019565982109814008, -0.028119262869574425, -0.0051384301918198485, -0.03266671715458326, -0.04347886517449051, -0.1550345365483847, -0.18531479679804708, -0.03934463473015846, -0.08085789606737524, -0.08041118479124029, 0.035803653264315366, 0.1421037399968682, 0.18332269625393552, 0.08086056071987455, 0.10096745799189501, 0.036819645519981826, 0.01295550930695524, 0.0008623846445394973, -0.001038401130756535, -0.00014882679217163153, 0.002272439297184303, -0.002512106024768567, -0.000391698913732801, 0.0006873129865318373, 0.00172329863424367, -0.007030971448278508, -0.08157345464351186, -0.08533277309288251, -0.06340875453524723, -0.16313717930432836, -0.09570984271241059, -0.1877615293844792, -0.11901108432414328, -0.24422547884172552, -0.21399130472933053, 0.04282434972514089, 0.004055987938948676, 0.06746591533883424, 0.09535857621321032, 0.05706170591501283, 0.13160595951516857, 0.22159903847940396, 0.17631872317176162, 0.11276575621730177, 0.10570481169019556, 0.060786986064377366, 0.01972275607511525, 0.004496424201190154, -0.0007004207079225986, -0.00020969973006718738, -0.003203583217007645, -0.000489870302666118, -0.016394419346567924, -0.07790874333134282, -0.1665647672841537, -0.1937012717379553, -0.26062836439826903, -0.09554503582552583, -0.044536188599751364, -0.11390922581492842, 0.02362627502843113, -0.2605838329547319, -0.27554924355521343, -0.1186232467918447, -0.2966491617556088, -0.10490944443665741, 0.08787713219136771, 0.018201514005604824, -0.07713375080131117, 0.3068831631252162, 0.29099731011355273, 0.24992752941383858, 0.207088528895873, 0.06540148550782342, 0.025840850563362116, 0.009709662879853722, -0.003153684803902746, -0.0019141734071020597, -0.0020218754381646363, 0.000675292295756899, -0.03866511368389526, -0.10214139825361493, -0.08883989328918886, -0.23503601279447525, -0.09230335156052538, 0.0902555797800772, -0.10021416870150444, -0.11119621107387123, -0.07345289892711593, -0.11209031878311998, -0.260834585002692, -0.04607399819980105, 0.056307462435060164, -0.06409590088170877, 0.003941294887467571, 0.006227896300025089, 0.11090523368165467, 0.30457318475219575, 0.3048118380132364, 0.28923381290876865, 0.16808203148747736, 0.06569338799883638, 0.020575014918116804, 0.006756303310165143, -0.0010016808292836246, -0.0011788877979888028, -0.004284595331381713, 0.005818401568987188, -0.04541526612386382, -0.10742012547947347, 0.013849617606342155, -0.09770867979018184, 0.08273295624690362, 0.23496191020031135, 0.1231332975693312, -0.05496780431196844, -0.129866960466762, -0.06674088532714481, -0.08054247000539683, 0.00459815208131584, -0.017708522229510644, -0.06589841929804725, 0.08315581223922466, 0.1298960249302885, 0.11528247461965124, 0.417324236294265, 0.4265736510774007, 0.3036247488038615, 0.1473367708600294, 0.08537591858393277, 0.012466597036709135, 0.0024852383130304087, 0.0006322851624533117, 0.0008703857321052088, 0.0026701329087213503, 0.01264456334624709, 0.004059958844761499, -0.11205839033078846, -0.02900754435218002, 0.07042269352345205, 0.11686656044811239, 0.1539695912524746, -0.03476346960192353, -0.3373657360910045, 0.16807288828930772, 0.04753782042352311, -0.08520581264889536, -0.020626383211836276, -0.1639481664418961, -0.22284253821244407, -0.054927215722899124, -0.04222472602305576, 0.07965961518700564, 0.5042005162612065, 0.48738132705273607, 0.2754952293496605, 0.16792279495258958, 0.08552275458578093, 0.03316221270258443, 0.003998429829465561, 0.004048524234173093, 0.0006317000603868711, -0.0019599048024424057, 0.018128550819875255, 0.02008226987129636, -0.05274372927691332, -0.07719680277244209, -0.0710886391258099, 0.06749405000538752, 0.21634544299591757, 0.062191433567932254, 0.05623445868781276, -0.043056582515902185, -0.12873719802704128, -0.22164976437055356, -0.2268517700032822, -0.42446164912318557, -0.44246020390581836, -0.2265923541179862, 0.16448344309040527, 0.3180645644372018, 0.5762456772847218, 0.41452295368849207, 0.235698349795291, 0.09796550430575969, 0.05272496915974236, 0.02583206732922061, 0.015276219801924756, 0.009604938396265146, -0.0022449248038582245, 0.002355164933339482, 0.01049098049729155, -0.01594273432270946, 0.03660031933362578, -0.03456502123966618, 0.021076409134364083, 0.07046439758113453, 0.2327591465266012, 0.2279110863571429, 0.09066575432600703, -0.000924377080101088, -0.026207179613877224, -0.193643793968158, -0.44003909396860263, -0.46960521607686756, -0.6698429534148035, -0.2618175268194786, 0.49365042263604886, 0.6085180416623716, 0.5762051187241486, 0.30272586514680233, 0.1192920730581585, 0.016457184386618817, 0.050025128532059523, 0.009968076393867558, 0.008503062460007616, -0.00039891763650372043, 0.00021129734970983964, 0.003941697205515272, -7.514727046936005e-05, -0.03889710255206826, -0.0223134170307942, 0.02202069265148689, 0.07185491065454175, 0.09557774320355487, 0.08802566865478047, 0.0645799608110301, 0.013319570933416219, -0.09266636469155107, -0.22941643287081995, -0.16228826450706482, -0.4023302924942787, -0.27151756214781847, -0.20729491969142738, 0.14022671006866452, 0.543018737006707, 0.6421489340912121, 0.3229140820249686, 0.12747503434483468, -0.021991434724595787, -0.06004478121646191, 0.035158158312588166, -0.0033021217402922002, 0.0007191906751937803, 0.0014247135109087168, -0.0013860159821709808, 0.0016248814816776063, 0.0021532709609811645, -0.009645554312832384, 0.024898286559717518, 0.02584283358133963, 0.1029409650053868, 0.0846611437088504, 0.07874327361282311, -0.010825714959817408, -0.08348248969182986, -0.07131789408411683, -0.18175234705171098, -0.09700124664518313, -0.30167056600758024, 0.0005806791761842686, -0.03461712046131981, 0.18160438031831766, 0.4633430550765981, 0.36651151795593007, 0.1720423971896476, 0.0571740200833845, -0.10120367607860173, -0.10563141298243398, -0.0643591931834114, -0.04461908467777175, 0.009265610980221564, 0.0025761736038273984, 0.0011679638886890214, 0.0022917485873851914, 0.0010676646135067427, -0.0002348633781491138, 0.015536725395193495, 0.06892052300349219, 0.08766815182698474, 0.05423131476035269, -0.02376874597400872, -0.12724170398559195, -0.03291339569735498, -0.047123295079832914, -0.02762535027710956, 0.01789390748868315, -0.06387528632436851, 0.007725647958609962, -0.06640785653761079, 0.14798279574877396, 0.3641764390838505, 0.25898840661777306, 0.011550314230709745, -0.062340254312592304, -0.015067955452771627, -0.05335129722038034, -0.055648924507365895, -0.036316883239207585, -0.006158566789604605, -0.006665328126818953, 0.0027230912712410456, 0.0012206675760428663, 0.0031451867123232034, -7.242121821173833e-05, 0.04179389444183635, 0.03226371429262039, 0.11104728865427152, 0.13765770237282693, -0.03753091315651641, -0.07872342621286593, 0.14643937190167783, 0.28058217452818046, 0.17480922468571403, -0.07849986365836517, -0.022427958208302578, 0.017743604657688036, 0.09361175102991688, 0.26941234724191876, 0.4145350712431125, -0.028007081171999876, -0.06394736022757803, -0.1991259164551574, -0.034104971726550394, -0.08957644700779586, -0.006708107527718884, -0.015884367686132696, -0.010172936883966241, 0.0015567129973570665, -0.0018538375031976367, -0.0022529147823991515, 0.002912057105669155, 0.010725039540781661, 0.07426352911852958, -0.0022624844029298734, 0.016642243750303702, 0.05558421262692399, -0.009080302196629466, -0.007498991518091592, 0.0880826841357075, 0.04424705418708909, 0.04279716160895971, -0.10747602588811109, -0.1092738519137492, 0.07221553500841302, 0.10622583613039667, 0.126819532539096, 0.1354569314094685, -0.08076193118536297, -0.0558224701176888, -0.14664254557183223, -0.032004426205640396, 0.007696965610931818, -0.0539074828464917, 3.189164212780327e-05, -0.035111681966973986, -0.0033065765454431883, -0.00039790413160260753, -0.0016536753173669384, 0.00030267567228008156, 0.014652011940467733, 0.11816772636567165, 0.0883807776641686, -0.03415945957518623, -0.16734554785443254, -0.08265678893709627, -0.11820094294348904, 0.0585397971266799, -0.05293920196388584, 0.03326121388598546, 0.024812959020364723, -0.10347131781569711, 0.26998333893637744, 0.20508299281017273, 0.11655576982340525, -0.16281270878518805, -0.10418286373691406, 0.09270663969057359, -0.05432439665534573, 0.01887430256466774, -0.059642481711540955, -0.11840988685969171, 0.008790848782836412, -0.029347180363551367, 0.003549583499560032, -0.0002689516822621715, 0.002349113137389568, -0.0022091384230533886, 0.0032947713870930817, 0.061382480883690534, 0.12152029758359857, 0.018199883226299313, -0.08662391154600155, -0.10759569561433625, -0.054772280687561146, 0.11700640113404641, 0.07027713524603822, 0.07120046185510291, -0.0037878895180113088, -0.13282436155535388, 0.18492361934954513, -0.013208008652430936, 0.012433522043348, -0.06051491724623197, -0.07678369967619131, 0.08607109201436501, -0.040650129211262355, -0.03036410834896924, -0.07896502107006431, -0.018773043295868493, 0.02734447464086592, -0.008729210962226864, 0.003270823715163322, -0.0010446110152517202, 0.0001325902573021301, -0.003421959223477274, 0.010290375910189041, 0.008238070058489248, 0.029199504127867357, 0.06971633678947158, 0.03965712097114393, -0.11044389233197542, 0.04418802990206531, 0.14365371700462007, 0.02814455965603495, 0.06603852355701895, 0.03091542888763766, 0.13538251181652083, 0.1465865441557068, -0.04985237351399437, -1.0674303251729226e-05, -0.05378425774108642, -0.03321498894086147, -0.121791596329096, 0.012323658218027054, -0.07999454168983461, -0.12452176202593554, -0.035557981302290355, 0.025295484368604067, -0.0008663596835984211, -0.00833845697804378, 0.0014779238818812476, 0.0027258972924571376, 0.04814476782589559, 0.04994574358621584, 0.04713088594602089, 0.043037203149093775, 0.15816919251046468, -0.00427613781460762, 0.007675122441935317, 0.022973224246431428, 0.09849752602428416, 0.14295195730148222, 0.11398687083481897, 0.08220077074610554, -0.030392242013947798, 0.03627228502449944, -0.026320705837968507, 0.0641910403266124, -0.029156340644034374, -0.036761668531235386, -0.08912473548581092, 0.05162792341630653, -0.08074199006315873, -0.07160399061616161, -0.011961451253022467, -0.0029856588357083298, -0.006531379339049806, -0.0004543922544533337, -4.267400944143335e-05, 0.004779579412002592, 0.04182717960756406, 0.04715157323666983, 0.11399217243879929, 0.16502055565223145, 0.015129990946600355, -0.15045976875828537, 0.0016072062460688755, -0.1416953471744619, 0.005801539227579732, 5.042854215519388e-06, -0.003939439029927615, 0.07105295058196735, 0.04041082570752408, 0.18668031154578255, -0.02634214517270984, 0.06863533269256464, -0.03148505837107884, 0.0021003373535562987, -0.15485414676882805, -0.017809061422288903, -0.05321090444419349, -0.03231976001387724, -0.018401417153481984, 0.006311426624162661, -0.0037857789875869905, -0.0012737565616841944, -0.0017628023988090014, -0.004154201041593962, -0.012569123114529141, -0.0004835766298194748, 0.08200592283088538, 0.11924339033256473, -0.028066837032571533, -0.016369388592187308, 0.09376694327770535, 0.06273587466359382, 0.05565980221767422, 0.07386196657849556, 0.17630132147243585, 0.21707859620821307, 0.15527534066682294, 0.0556470144633882, 0.06640443922215607, 0.30033915079796714, -0.11397722639899567, -0.20014499199994495, -0.02347760932272738, 0.09745896075657874, 0.017148396397481336, 0.053241408699042723, 0.017345713584496093, 0.004640978637774421, 0.002870039668273668, -0.004531631966170692, -0.0016794146466040858, -0.003369134388858691, -0.004420302046502295, -0.031850947228221356, -0.01672161928889887, 0.030441914826316866, -0.1286223570043939, -0.10132136763187317, 0.034339387885855874, 0.004768575711683893, -0.026895735127258135, 0.1011192472326504, 0.25771318945679617, 0.15744929472309033, 0.19969142953804245, 0.18216411412517, 0.3000277225687867, 0.2707386560095253, -0.09604048212295173, -0.03348641735923341, -0.04530181250922385, -0.025258647122195894, 0.03005436137941326, 0.06659091168734678, -0.008258926899549697, -0.005338816331108524, -0.000501037735049195, 0.0013960957861618825, 0.0009186097168841022, -0.001539727974216802, -0.0034346980456843885, -0.01740966789278946, -0.011692718634005875, 0.05323314116298835, 0.06906011541463833, -0.11386739629111932, -0.018968181559778093, -0.1381267659750822, -0.08630784977460992, -0.14899843133974183, 0.0360822870492539, -0.03941643262027935, 0.18642092349328956, 0.20619110343770997, 0.35176659094063667, 0.021308903440958985, -0.0961287601306724, 0.01836841593869769, -0.04705042601788685, -0.04779112014249426, -0.0017463283110932166, 0.06825442371128194, -0.029877019332328867, 0.007470841207943891, -0.0006902554781184805, -0.0012347294114117135, 0.0016389043157672963, -0.0012629884542733356, -0.0008190215354666363, -0.0054738308634982805, -0.0189466908627221, -0.039654106521631864, -0.09428279146200261, -0.11419898452227664, -0.07159680195229602, -0.08557785214168566, -0.05236128701135741, -0.04675509934651107, 0.15927773158315975, 0.16013662445023127, 0.011803201574943377, 0.24557227791524208, 0.2236977265684963, 0.08007165513378757, 0.099765466471253, 0.0015833409536446467, -0.04006223666538319, -0.11764091641413096, -0.006790407580183076, 0.03980809232058872, 0.04832233119759228, 0.005178757429779929, 0.0025996617988688865, 0.001103998293937151, -0.00045741168931114496, 0.00548572418097869, 0.002912975668974765, 0.002796563669781521, -0.02478781741688129, -0.08135852432507153, -0.09772487282547077, -0.11686564243069548, -0.09760932809166474, -0.11780680891805746, -0.12255372084465924, -0.007567046264669739, 0.03505995159452005, -0.10394490600808004, 0.0078449056781504, 0.09067041250006719, 0.005471817398945485, 0.08177532055448843, 0.10639587203005062, 0.058961278043065536, 0.002972230959599006, 0.006528011105673106, 0.042215332988205824, 0.04987621835395507, 0.028589065111995944, 0.003470773999331625, 0.0012920004733531316, -0.00039734526584333336, -0.000497571452814908, -0.0009668432246108962, 0.0005414253444383248, -0.00013908003166524858, 0.0028385604036352467, -0.007929022240899877, -0.009534181456774166, 0.0017260092398668886, 0.00591111632372451, 0.000766689462847169, 0.004414262268510886, 0.021216831262045297, 0.028686984063414623, 0.0398173074311197, 0.013403625531205476, 0.014627100958238675, 0.027772154447502105, 0.001712712110298491, -0.021071564412011298, 0.029821216927486884, 0.0396937519355876, 0.007730485744563511, 0.0147768748368909, -0.001384411533890674, 0.000990017525607633, -0.0008862909914152583, -0.0003981087513013955, -0.0004929451823473915, 0.0014630109998715738, -0.0005762420071280589, 0.0014303327885236766, -0.0022876860650069366, -0.0005798936630666634, -0.0013570990197751896, -0.0016773800429233884, 0.00024371100593957479, -0.00036546390312279357, 0.0007278668904752223, 0.00025569335867979786, 0.0015358016868379388, 0.002016809005054549, 0.0049228519021571005, -0.002205868455584364, -0.020499123298713215, -0.004460026846400928, -1.3298177243495948e-05, -0.012801597511723084, 0.007571623981169663, 0.007479025106340638, -0.01199631189176253, -0.006672908635806864, 0.0033142950607112417, -9.638092316048685e-05, -0.00048137215165534983, 0.0005078035091098092, -0.0003880833828169202], [0.00038685559393107866, 0.0005957157369160665, -0.0014825010846018214, 0.00017764309995374093, -0.0005089064104544678, -4.552183535601977e-05, -0.0013650157437831393, -0.00024116688741259603, 0.003248869575871114, 0.0019169884211653633, 0.001784645739537595, 0.00034883332769817735, 0.002802478187038773, 0.0037031707687793496, -0.00018770264253824785, 0.0034760520867095166, 0.000516421313329953, -0.0018052178565930819, -0.001028706406110314, 0.0006940780503222267, 0.0017128304582102718, 0.0016787716684426037, -0.001036862904275017, -0.0001617705971168776, 0.0006793425310890665, -0.003987589669596402, -0.0009569332518514551, 0.0007765804056032459, 9.836643018449412e-05, 0.0028543427403668878, -0.002118883452087101, -0.001338808476269323, 0.002585887461963189, -0.0009652003170006784, 0.0029270259332227185, 0.009519107319780782, 0.014226234997191747, 0.0047746847762431205, 0.001315216530822497, 0.003022886331799717, 0.011986610259270145, 0.013395607431129126, 0.009175229823283074, 0.009798376153634249, 0.006238041276515759, 0.00409073589162882, 0.007675733408896649, 0.01727533616596534, 0.00813061021118893, 0.0012843730813441848, 0.0037387032890858, 0.0006435446660573622, -0.0006904156552729806, 0.002942579985141147, -0.00016561228150729373, -0.0031825946531341093, -0.00048320998353641894, -0.0012483619610784747, -0.002860167416749456, -0.0006268367843354675, 0.0009091154910667586, -0.0009268928378363151, 0.003619322539202299, 0.01347910119616535, 0.017190471794751423, 0.011482506000423488, 0.009891731016663885, 0.0167354661265929, 0.031149641183610133, 0.03667155897516795, 0.03429153158596497, 0.03279345563530155, 0.04314545738952258, 0.028130967933021264, 0.0706403914269842, 0.010254085976990998, 0.007908600470639217, 0.010821322712894727, 0.005875176786695524, 0.0034854849317297746, 0.003574660454347551, 0.001681081370869626, 0.0013030562005941996, -0.0018916580462058877, 0.0005197925535989604, 0.0014674892623797277, -0.001013656597427691, 0.0037695783361068693, 0.0015473460824278174, 3.7610860458726244e-05, 0.0298701936273414, 0.03655675953172888, 0.049767375773233216, 0.019061925330765794, 0.015297510744955826, 0.02510724981958546, 0.10571495512714725, 0.14503346675716874, 0.12828612637935102, 0.2158347414166119, 0.1202122673520031, 0.023994804452794994, 0.11453491590390404, 0.09464972778768771, 0.04619779309381068, 0.04645060073073526, 0.02605462702378593, 0.017947766073951956, 0.0039626789330150704, 0.0008575059544355887, 3.917287047327953e-06, -0.0013540080715710274, 0.0006030527634974358, 0.005298887308617661, 0.003966333424068848, 0.0023026761779623467, 0.0005006997540386715, -0.002504372610266539, 0.03330226226755216, 0.05598836458972191, 0.029782429427603, 0.019931151040325827, 0.017571827549997036, 0.11235786842994117, 0.13290341427409771, 0.2315867935104808, 0.34873726582514664, 0.31030212772816596, 0.18123300489773134, 0.20198739463819015, 0.16954010250317852, 0.1844534030603802, 0.1252570414251165, 0.06964300182993981, 0.045987396183267935, 0.01610772009066542, 0.01919938365527289, 0.01904235224593316, 0.008439059213938756, 0.002372919743398184, 0.0018751908847884585, -4.5481950673163035e-05, -0.0012686765979911668, 0.005314223355315216, 0.014267316484932445, 0.0359067457171366, 0.08520917291400128, 0.06282501455914773, -0.08335579539965415, -0.015483242201544851, 0.04595894016738037, 0.10374548011353517, 0.14889192692884917, 0.2544115009712764, 0.2536645108928674, 0.12726633727381229, 0.1442687610894509, 0.22375544314957185, 0.2090866248730592, 0.3495442932309647, 0.21535334646191961, 0.20675481421725758, 0.16313815470171075, 0.022640299098104662, 0.04648402247923599, 0.04046567546298657, 0.03182195925330252, -0.0017981470168949793, 0.0015024185924345345, -0.00025045213033006994, -0.0029811893096471577, 0.004312045178666409, -0.016341489185106643, -0.04559469384703594, -0.024156882429791103, -0.05564577770570655, -0.1412523375820263, -0.01046463108487238, 0.1755008167524481, -0.016038140686614626, 0.04123360561361264, 0.1854480071172573, -0.0334906635887127, -0.014087874756752725, -0.01198681555402249, -0.13788330937489954, 0.00539872862321622, 0.12472719912742156, 0.023960975954472705, -0.0928148366551514, 0.06738241800742709, 0.13074319537581547, 0.13022127330037675, 0.1175774782518675, -0.0015327094283546852, -0.001968771653703517, -0.0010856691561052549, 0.005791780767867893, -0.00901814760989267, -0.032408636377509834, 0.019292529478575852, 0.06532939122380647, -0.045751112266596984, 0.046460296952485276, 0.08311807992392659, -0.12773713599445824, -0.04405284575141271, 0.09332685173788145, 0.1577621552298324, 0.04793513294980753, 0.07922114082432283, 0.25286180180760615, 0.0377248603739348, -0.1988683585032712, 0.13164935401165304, -0.05686718627022398, -0.07281316102439718, 0.03499160068119242, -0.017476572332118544, -0.08144400699930401, -0.0004803677433351859, 0.05993247769588994, 0.000337142806989331, 0.002624763002432365, -0.0013792291088286152, 0.0022361968789438463, -0.018992443746263514, -0.03832529802514878, 0.015815039006174605, 0.014710698116719552, -0.0889036540438274, 0.05420273959423729, -0.11454733192195728, -0.04842476601667604, -0.053423887799121196, -0.03341145770826072, 0.025203023771917358, 0.09529760059479091, 0.04134714361954175, 0.09347042235499156, 0.1645111759903469, 0.106069366998912, -0.09667866313872872, 0.0680859524274103, 0.21791794047282165, 0.19167455150141097, 0.10325004492709015, 0.06639929090964884, 0.0276498800618434, 0.11249859395625379, 0.0382504575049305, 0.009412173356703515, -0.0033192791228947023, -0.0015998615374079252, -0.011149966373344845, -0.05192834579622738, -0.05406850928972058, -0.08468456836443096, -0.06362499199096407, 0.11529031137165342, -0.08562972571500864, 0.11110657657023613, -0.0029141224512099625, -0.11877924626519147, -0.1289310051432798, -0.0548186704714212, -0.08971073264371734, 0.04479430554081674, 0.27445056253562045, 0.05600412111790176, -0.11022763885669234, 0.039886451920206276, 0.12661290310302425, 0.10110226491402853, 0.09208549270622271, 0.16961537432084553, 0.11568550946953407, 0.1723373907870926, 0.07508307978130233, -0.07333798047894388, 0.0005509262719064028, -0.005321849547051522, -0.03246586746207248, -0.029556249704195736, -0.043678723509467526, -0.023373208379063416, -0.0529888532003211, 0.004060828608807901, -0.13126513821264166, -0.048184913450068104, 0.20108420248981945, 0.03236478835249364, -0.14822978347681526, -0.15884383200519414, -0.055407971886040255, 0.03887654345051372, 0.028604319751755817, 0.00339413452492785, -0.005100824121190611, -0.059149413716210165, 0.09672078435369111, 0.16286832242617041, 0.15392070359911902, 0.16573681671471385, 0.04154085303224724, 0.10873994300902622, 0.03741917976690779, -0.013516004897079891, -0.0014284165423232434, -0.00034936474988314593, -0.02643183742000159, -0.03826494188574037, 0.06752279200611191, 0.12109306745405696, 0.06462086248182838, -0.10637864590228292, -0.182286067033008, -0.049673981560470565, -0.08518779875104926, -0.19846015738873524, -0.28868523863718704, -0.057637866139148196, -0.03748613695485558, -0.07883632268191183, -0.21119445267907527, -0.39896100673734164, -0.15767700468109302, -0.20365542452719337, 0.037532770998735275, 0.03727697204528346, 0.05900419641234987, 0.08242913180287502, 0.17066206586495025, 0.14901447728187778, 0.06566784205606593, 0.0020118321542122444, -0.00011903124462602448, -0.00028286217563562425, -0.007526964576512855, -0.00014562897649204797, 0.05926613670131851, 0.14325749479046399, 0.11072134753604058, -0.05163578968598103, -0.254303994621157, -0.048660078066257766, -0.19928409173176273, -0.2081441672211142, -0.06485193964131361, 0.03945017660400263, 0.06716857287010408, -0.2667875095698876, -0.2793122941583341, -0.1270645345014757, -0.35761955128179435, -0.3166638191726487, -0.05906798568099854, -0.04740061275212259, -0.08296885535828202, 0.11919138496301233, 0.15056130355851408, 0.051678261810803476, 0.005454270042153031, -0.00849172678679775, 0.0008647371060261578, 0.00354710176841628, -0.007671885679010244, -0.006492965340688933, -0.03532148918723954, 0.046746659295169336, 0.029134227738425514, -0.21897567021780603, 0.07929026426511919, 0.05189846675971507, -0.15904545161828337, 0.02352788800323244, 0.09565207070408868, 0.2098039463924474, -0.20303287461398056, -0.412351322012954, -0.16208465380508608, -0.06503510903719321, -0.20806303339349524, -0.06475237774365279, -0.11853280996040344, -0.035347025523272964, 0.022213165714050832, 0.11561525173935552, 0.043017639606136575, 0.0033646471621124607, 0.0036342415568635976, 0.004224431924959045, -0.0005006840231109858, 0.0006404656685286834, -0.004062377043425533, -0.015130852234571576, -0.07025160138354358, -0.07517741181028414, 0.01598372850129377, -0.1598100206176405, -0.12588484397821936, -0.06472072790364218, -0.03122676439629965, -0.13660125491491037, -0.11375629893638038, -0.05936759034102236, -0.22757412957659454, -0.3233590680666794, -0.26288681549268267, -0.20701646982678842, -0.4557777866801484, -0.340118338459298, -0.1229981646785219, 0.055851852402720545, -0.002177370890359193, 0.03522714177227295, 0.03330552231694935, -0.006258753452354823, 0.000692019349898733, 0.0025314932512117837, 0.002118175929203243, -0.0011831867209024978, 0.0008986931432070785, -0.03691539549533725, -0.10276142152358986, -0.07169831939710301, -0.0036653164343680295, 0.08929377448339217, 0.07480857348285616, 0.054241286233133776, -0.16687153688507467, -0.058570421193261564, 0.16314949188174355, 0.15083327946276967, -0.1956873244715187, -0.32892612761207884, -0.04794657270279021, -0.4734189445468647, -0.49542683021958794, -0.2552459360163974, -0.12239596292307714, -0.1949756987636027, -0.17268189417987168, -0.008196977490870127, 0.020003226324333757, 0.004050913003655004, -0.017560684512362264, 0.003119632556932421, -0.004614983440465878, 0.0027835628301686216, 0.002912816231798999, -0.009251213694379245, -0.03807076870793228, -0.00537101129064604, 0.06463669140841236, -0.009558166715810718, -0.12954817848165395, 0.06871071325593565, -0.221198207431421, -0.16724356103399493, 0.06851665279602426, 0.02641473478327571, -0.2238244451543762, -0.3162569956245337, -0.2500524367704304, -0.3908544948309567, -0.3439202484973478, -0.13379169078203434, -0.10960753187278109, -0.08438368274971383, -0.0544942902287336, 0.018880326888158674, 0.03314869544851312, 0.016862737467296992, -0.001327596107956495, 0.0035200053070859275, -0.0005413705554932488, 0.0002215880191660495, 0.001408484065815252, 0.03221681096767964, 0.023572328358059884, 0.11085255681547578, 0.14477336130453816, 0.10701297889872333, 0.04119622704103568, -0.09419287211165464, -0.11099611717817987, -0.12676916218026094, -0.010587389694672574, -0.13818013041035657, -0.1855181013243489, -0.41250442059028863, -0.2467620173816799, -0.16215659956764372, -0.13712842827990018, 0.1861753840237488, 0.1402245689429698, 0.041336937730618695, 0.09495741216309062, 0.14687564195876185, 0.11392318384305543, 0.004989763570729491, -0.0031961465365385007, 0.0027135461280399014, 0.002737371357049186, 0.0017014965465943573, 0.0006546716645333936, 0.052480640144452785, 0.03293178704164689, 0.22162179121734418, 0.27850021028426014, 0.20499420535047483, 0.10257880051302326, 0.2410982091516285, 0.23603145829708666, 0.10916100853177473, 0.24121875656897152, 0.1364241172015821, 0.03150794764170174, 0.034459035724741995, 0.12310415637687146, 0.051496009778161475, 0.36945551009927347, 0.45779791899525324, 0.36757884771101884, 0.2022536916640305, 0.316374189155431, 0.319018755970158, 0.15125581772191854, 0.041056274927254645, -0.006818882311500661, -0.0011701077576604707, 0.0009203536344948407, 0.00032100284362273826, 0.0094178208384104, 0.023742684808693973, 0.04556567656028546, 0.2424669407671372, 0.3238953503990474, 0.253542425982135, 0.3325185356494134, 0.534515551716962, 0.5185195165118681, 0.4778518268916282, 0.3891533520771929, 0.48731251883126864, 0.19622857328073876, 0.20259295659433194, 0.196248462517488, 0.3308825988787957, 0.4889352664092519, 0.31591738122408647, 0.3616277620114396, 0.29680853968208, 0.3778739416584321, 0.33167749550563996, 0.14108385631169687, 0.030552748234277546, 0.0038733132590288927, 0.0006326723384316385, 0.0007769880427999074, -0.002999343170129222, 0.013175316342034863, 0.046478665053046785, 0.09227795811777459, 0.22410927465427705, 0.2659407180141559, 0.3613136248039135, 0.414948888296599, 0.2781306951976982, 0.2599937950431448, 0.21708353767967423, 0.23653005938711674, 0.169821866343881, 0.15958125070863613, 0.2862111331976773, 0.07856485916156561, 0.2557415009111389, 0.30421483805372584, 0.28798272223202076, 0.360245784954269, 0.27168730465845564, 0.22583520174329774, 0.28258776855066253, 0.0739534142964856, 0.0030057310935701, 0.0030979211662942856, 0.002461368017358901, -0.0026978598360521437, -1.349666130088764e-05, 0.01611428951440177, 0.04708898716794422, 0.09093867667319566, 0.13349393187945427, 0.2702588961343862, 0.296865684113879, 0.2380381197954484, 0.03156417401509807, 0.0708008384819153, 0.09406353095703233, 0.07874079145100253, 0.21388361538283382, 0.2870014462532725, 0.2935554349016598, 0.12100255704029486, 0.2855670118301189, 0.22371784056942168, 0.2366304202318393, 0.3391835346718378, 0.18935909017760622, 0.22137578898873017, 0.17519686139319376, 0.05643713957466239, 0.02600861847566235, 0.008210819585451341, 0.001974514993239895, 0.0025466828202209374, -0.0018022077199728484, 0.011816340179543455, 0.020561962203851578, 0.12216661231519195, 0.22684370216531818, 0.09522675063702163, 0.02885411201221003, -0.09994233490770961, 0.1900938474014298, -0.03016255276297622, 0.08539856387288129, 0.18727822893030616, 0.3741482453709135, 0.18235447031443738, 0.09777646580452293, 0.17049361881054914, 0.21171527925684117, 0.1816785812333784, 0.24518777204802447, 0.29539551777037004, 0.23968491570740003, 0.16985056468149243, 0.10659759923826263, 0.00838506767230311, 0.01284233520875322, 0.0034209102497914914, 0.0004108352169613836, 0.0017350325518079104, 0.001765861950056626, 0.0134715258282366, 0.027268861821793177, 0.16519080015920748, 0.19938854828579552, 0.02631586773692833, -0.08506855716297508, -0.09748267750838023, 0.0957754209504852, 0.06842802729839768, 0.15019705435271954, 0.09179169182865282, 0.0977887007024206, 0.15906954202952792, 0.21865176876136466, 0.21284275468788869, 0.1655765945795787, 0.16884933273232514, 0.08945586130115686, 0.19021394055341007, 0.18760135596570227, 0.11583193241230302, 0.03063319418581008, -0.0013264435443149291, 0.01353916875625157, 0.0010392109130659027, -0.0007311854872762187, 7.799450537703194e-05, -0.0027461119125325524, 0.002479403552893935, 0.020153948383584298, 0.012303423180725475, -0.019994376142938534, 0.013897845250394109, -0.0637634894930949, -0.05673514637524427, 0.09617401435523408, 0.12690651898611494, 0.19757727877605402, 0.21155734013043065, 0.10033108630585531, 0.1136523597178547, 0.22551277011887638, 0.19918091672958946, 0.13272662444294742, 0.1335900885122029, 0.06281184279874341, 0.04703559504738413, 0.0683758659577182, -0.030695497053544626, -0.032258666617739816, 0.0032741778347221973, -0.0031256462320093693, 0.0033646584995503243, 0.0007888560591368216, -0.002081984470277265, 6.989025766586827e-05, -0.0026545838655962144, -0.008356121272482657, -0.10684030744315964, -0.10372455383750581, -0.017263141844655702, -0.024569413080027854, 0.09935112634033764, 0.16628826397107008, 0.11770726200004397, -0.1460265200726963, 0.040532110830098556, 0.061884973238964885, -0.09048568504983773, -0.005664230027146579, -0.0866672647069138, -0.021369928701760684, -0.029238049200910905, 0.005606078636572168, -0.04030939353726113, -0.039896024478534284, -0.022214074036517845, -0.0054805297340579885, 0.013906764259257161, -0.0025863338887488685, 0.0004987619147440511, -0.0038587235478755853, 0.00040688186397859385, -0.0030878793045248753, -0.00033992749572264974, -0.0012359151378513373, -0.006860922154714668, -0.018909421317327656, -0.09160375894633271, -0.0970909501970022, -0.05616818334672065, -0.06953318670617015, -0.055823660636635915, 0.017140355257221858, 0.0017158039344781744, -0.055435390393448566, -0.1405368856150005, -0.08910827873870253, -0.04216080552192381, 0.014484669051053452, -0.02733153826530916, -0.04430055200429235, -0.022020221768273694, -0.002048262769053961, 0.009660231486847148, 0.00047302602390226285, -0.00023115240243847248, 0.0022209702253043933, 0.0019340553868277123, 0.0006591235187008753, -0.0012149868861470548, -0.0020804680018213216, 0.0016407568928636048, -0.0018303568187899135, -0.0022857782787130384, -0.004700863729358484, 0.00019753916845842884, 8.04663762161166e-05, -0.0002964139751216637, -0.002436951719757722, -0.01370424479007914, -0.007732370469693621, -0.012362216051964275, -0.016115684065483193, -0.012389554233639709, -0.005647617691718848, -0.015648732387288596, -0.016323814661367914, -0.03451352604807783, -0.02639983143149127, -0.006481077475220383, -0.011209068346294601, -0.012560595553035046, -0.0020839617581271505, -0.0034787518121599478, -0.0015993246602431684, 0.0005870937115793235, 0.0013220861010980235], [0.0037597080318199994, -0.0021120085933609626, -0.0008074119048339974, -0.002981427162584785, 0.0019285178217587791, 0.001980095024415946, 0.0029474497266029874, -0.0027113965702438713, 0.000454985633230399, 0.0008391550853673138, -0.0024869517624061836, 0.0014342487772781923, 0.001773668982123216, 0.005852323390822916, -0.0020953860143884955, 0.002067790790901423, -0.003343168054130601, -0.0019408860657503617, -0.0015214605075932835, -0.0007237427743188881, -0.0005472233343382025, 0.0003315391193688677, 0.004159291081385347, 0.0026029386549321944, 0.0029134651154403388, -0.0007101853438921619, 0.00046580162469082403, 0.0015929165256464704, -0.0005097030846432376, 8.417812857092888e-05, 0.0008161182812388896, 0.0007928813344138952, -0.0005744775634689025, 0.0011810959417800488, 0.005065340888470302, 0.00945820336466169, 0.013964949350847975, 0.003833222555914413, 0.004274085206439235, 0.00994065723380414, 0.028347333518820423, 0.024189748460809603, 0.0217870757682279, 0.024265713160495826, 0.007157078213360255, 0.006141126630266388, 0.009912160686962712, 0.01867005219717013, 0.011850790275600364, 0.007213928980715025, 0.0097714220105369, 0.002532947317996098, 0.0012259390945161045, -0.0024764362439580623, -0.0022686030906116567, 0.00012589375948103885, 0.0030030457989406014, 0.0015256950864225944, -0.002803218243593893, -8.812099937276941e-05, 0.0027306970215042023, 0.0011726984968384907, 0.011524442297085824, 0.026017225637398528, 0.023306381898831986, -0.0012262226549776209, 0.032783780382753314, 0.06736873444453495, 0.051372845380532446, 0.04781839591445227, 0.07301618738579782, 0.1168846151561929, 0.1066300699951701, 0.09003856458360299, 0.09566853339528682, 0.052964504574547384, 0.00023742835270072394, 0.0013295387095049744, 0.015110196733551712, 0.005906948467222195, -0.0003955189992089928, -0.0005239284043460874, 0.0015431851176108593, 0.0014774037695928215, -0.00018767022216885154, 0.0008741780189125181, 0.00014701618292306111, 0.001637969829586884, 0.0035160138061571533, -0.009420972564075562, 0.03080581067479276, 0.03831911627412708, 0.02599942631300747, 0.043007770296945, -0.0007863933195147442, -0.0745806856143524, -0.06766278646234616, 0.059845134249569366, 0.04013061983332526, 0.04363540850218752, 0.06276922947318737, 0.08877823077027143, 0.11382653177920164, 0.11946407748809397, 0.04396309804891798, 0.0184345928754749, -0.010258273547908696, 0.007502944274251478, 0.009992319676750485, -0.0017191292830909099, 0.00018677255258175353, 0.0023455057932073747, -0.00019908801718661093, 0.000578620265992883, -6.59149811266321e-05, -0.0037274042236588372, -0.004146933357295377, -0.03182235761413144, 0.015546662019444261, -0.007925408496161078, -0.042857898649849374, -0.06131376027340796, -0.10981632999603427, -0.03266810617161992, 0.05507466244051342, 0.11461206361006256, 0.16942578327555077, 0.12795572728534688, 0.06805233428137888, 0.10929224712686994, 0.08527004451080035, 0.04609541566272662, -0.0072875402247465255, -0.0006935652199035518, 0.005568886745565878, -0.0064876242474549905, -0.011849610150016782, -0.016773029701621332, -0.0004224502470387249, 0.0012762211919290498, -0.001293001354750179, -0.0003598068644676349, -0.00010730215831096789, -0.0056137544716899765, 0.00024768950811432887, 0.03745923936228957, 0.10790587250246747, -0.01842780606684861, 0.046954375035024254, 0.1551940900173721, 0.06872350164197194, 0.18889664616135995, 0.08773305634729517, 0.24998103139565991, 0.22575129856396056, 0.18509247289965808, 0.1279070096295992, 0.36003785715575876, 0.1860421172495368, 0.028050035079904057, -0.0448271295916494, -0.12284577351167442, -0.08951104053367669, -0.07390814227295615, -0.012480615425981938, -0.004984768967543907, 0.005006589764364511, 0.003008410369141913, -0.0003330277793250617, 0.0033875825257209473, 0.00014949922878543343, -0.017225360194018113, -0.024326044296746428, -0.007308431790249445, -0.10734215572724105, -0.05567166564414222, 0.047586411759354144, 0.01486965092873286, 0.0582777164870819, 0.28139176812021066, 0.3232292947839593, 0.3155389329946275, 0.34687222887648683, 0.32237040414555956, 0.45668908830723315, 0.36335824923639265, 0.2060816549545463, 0.1477304624561718, -0.03546765970008698, -0.2528941471828102, -0.2413122574787572, -0.20639423675227217, -0.07531872244963526, -0.015618337258297586, -0.0020797996700273346, 0.0005592793513436031, -0.0015326973364602385, -0.007037386835903853, -0.0010084543078413535, -0.04286421439175784, -0.04805453785762872, -0.0841815495735457, -0.07421682880424182, 0.0017474119661300476, 0.01824526934252085, -0.004857663058202081, 0.1264574318987307, 0.08645987422017352, 0.20912396435079328, 0.08175427065756201, 0.11227892015771816, 0.043538994291694, -0.07116383341048398, -0.2631658617145644, -0.17587732250585209, -0.12666305547232168, -0.2812726628017231, -0.28440085326597186, -0.2991925594456439, -0.24764318240512773, -0.13252863634092488, -0.02448350616150112, -0.011737625194730959, -0.0003671871594542356, 0.0019901993935379047, -0.0032171592921478114, -0.0002481548420745382, -0.008324210909742962, -0.03443716361923116, -0.034271369037235995, 0.0627067346962467, -0.017950980388120905, -0.011406319474457256, -0.048094197426743555, -0.04988909699701602, 0.1585401781129834, -0.017369294818147044, -0.277414066077183, -0.263348933756713, -0.5209770007921636, -0.689642490649316, -0.7131396133618163, -0.5322997788834967, -0.25390008114090795, -0.2711036153552911, -0.25109805600521207, -0.2868275447712691, -0.25624622994648816, -0.10035365373317585, -0.04719221382844069, -0.017175024248109717, -0.006630583301385135, 0.0013525763929670776, -0.0012628974559937773, 0.0016351800524694283, 0.022819813052784257, 0.07036480254158409, 0.030409722704792676, -0.06900216191830387, 0.030776497519856512, -0.0758809145575206, -0.23691457335334196, -0.09184937340657484, -0.014320559772905112, -0.21267451130236312, -0.3950377095511325, -0.4558834000317876, -0.4769238097539165, -0.6679211080260763, -0.717713942557016, -0.6207473056527676, -0.45547318007433163, -0.16897625699226287, -0.1424429218630055, -0.25485562543232726, -0.19756690403543672, -0.022492472473673163, -0.03873306774717255, 0.016053395837766108, 0.005547185175645043, 0.0019374106694029904, 0.00037699910759520465, 0.01193302444587337, 0.025966050300403536, 0.14574694892725634, 0.00850218266480036, -0.04530380719623287, -0.07479079133971228, -0.12142643409205214, -0.1407200189822223, -0.18532129269197276, -0.1269063943323103, -0.2273591144938036, -0.10703006502009946, -0.30371278439721705, -0.27281165431137017, -0.2556636330186666, -0.3136613087583064, -0.22583472468855972, -0.10777701082798928, 0.025970083503502377, 0.06420793096254887, -0.0962425170473566, -0.0676611133918628, 0.05689086301062158, 0.031670859790051575, 0.00741953296380279, -0.00030127848738643426, -0.0014755604921540375, 0.0027920155008153225, 0.04721953442575526, 0.040727139092218416, 0.15485258583584352, 0.036533099555276526, 0.017894957800123484, -0.07362426102939111, -0.12721224822288824, -0.01932645032918695, 0.15105127078930547, -0.13294102151302245, 0.012169859343886003, 0.2061950745485639, 0.09862886634717623, 0.022276352368877917, 0.18371454115641342, 0.3199072695375657, 0.39345392324637524, 0.1760299895619172, 0.2966096430487004, 0.18355909690139513, 0.010183404286637525, 0.1407520668167765, 0.10427624025423857, 0.010384050887825519, -0.01511147759978509, -0.002469429689414529, 0.004227106094765732, 0.001982929475850837, 0.010935350887993465, 0.047549994799990794, 0.1649832761358908, -0.011676786881928795, -0.002747361576505595, -0.00921836486900912, 0.10551929157939424, 0.08686170577214679, 0.011128618321181838, 0.045947867009023646, -0.10071707795787385, -0.13302562188300832, -0.04396842930692506, 0.08966168115849951, 0.31400152035137174, 0.33156518959958114, 0.27865555058590974, 0.1039305546804056, 0.040245160474844346, 0.08411264620921445, 0.026522676148131977, 0.12309843197783202, 0.06857922463818099, -0.008033976539833924, 0.020960488315746185, 0.007046670921534214, 0.0009070452101382011, 0.00654744489557539, -0.002792973823514917, 0.007079597405309975, 0.10282222613948741, 0.0350170304473436, -0.004776149652762955, 0.056189609434803785, -0.09193674068030386, -0.02829649046046418, -0.020799759705374506, 0.07537932126586766, -0.16447592215701634, -0.18404891380428318, -0.04126193649391852, -0.01954934273573713, 0.16996707930209942, 0.03486552458566433, 0.06361292920348627, -0.001167283378555096, -0.07295195935517826, -0.05044680715534091, -0.04857257685116486, 0.10141379438791198, 0.097776167718696, 0.017478375366635622, 0.009608154997182936, -0.004704171160130846, -0.0005329541240996536, 0.0023280494565343147, 0.0062577001548589865, 0.037821562477176954, 0.03316827763175887, -0.023395499393939215, -0.013661634591697131, -0.011810247291675477, 0.01709263569532681, -0.06185555016689791, 0.07550623937038718, 0.12081490293811163, -0.1545810378608664, 0.011778506424476696, -0.05467585241812622, 0.1272081441486602, 0.03471922704211661, -0.0019321669150554359, 0.2731636961817831, -0.07805249764300631, 0.04943625421066826, 0.04958748727267421, 0.09952420863718339, 0.08530321792559774, 0.007797319127714777, 0.030651703365322833, -0.006473120560317681, 0.0012015855156087348, -0.0007882046523648688, -0.0011032208417968055, -0.0026881332004860758, 0.02507713691619422, -0.011601625878431008, -0.04094662310061621, 0.013090962262732393, -0.07677811159469365, 0.011348992074746066, 0.08706136364514866, -0.009401162954827817, -0.04585056502643437, -0.15309939077758958, 0.035939125296137665, 0.06777530909471334, 0.0580953979938557, -0.08300604546405872, 0.08146146633801346, 0.23849357061261478, 0.01410306128535013, 0.20103081590769145, 0.1171621420650521, 0.038307713188289814, -0.12203601013915324, -0.004841364635304514, 0.09099859924950846, -0.01969675914472862, -0.0006163364689538776, 0.005403033555678046, 0.0012349542971033254, -0.010230675861592143, 0.01037060657507177, -0.00872581909407757, -0.09728171988758903, -0.13364181080455517, -0.24576737646153682, -0.04686761659430125, -0.1148345007857171, -0.14647994035847492, -0.17515178256099273, -0.15424132300892615, 0.07434025391596279, 0.30578469154460014, 0.10082079463356304, 0.03557806932193114, -0.024367122553685203, 0.01631924688506229, -0.02719830697174263, 0.19564110224077458, -0.017967899619751582, -0.0406257169576563, -0.07984192463685191, 0.0348952747850289, 0.06429462428751645, -0.02406345360127555, -0.003758171235557592, -0.0014576251490774782, -0.0016763071219107744, -0.009649214364172432, -0.03140532846802232, -0.04703923748926195, -0.124025890467989, -0.08298335261852759, -0.18139428649609662, 0.07266637806344206, -0.08531762392334714, -0.14032515034202986, -0.02914282538423589, -0.034130601617379, 0.06400523340115023, 0.11660274790651695, 0.04092660947057376, -0.1045539844962084, -0.01434881304311546, 0.011072647920855341, -0.042657041495487893, 0.03558607961267886, -0.025808771330702925, -0.13888738265182513, -0.042244315956044776, 0.043229516980184145, 0.02750732891598851, -0.015493957724874123, -0.01705020221309728, 0.0028452910107114623, 0.0015611160641005376, -0.006003273421530296, -0.03990895123425521, -0.08065746644684144, -0.06251177049439831, -0.09993887139327882, -0.00419217047858163, 0.08884385796118016, -0.05372676808106515, 0.04711937909944505, -0.06070309098933896, -0.04890984640146633, 0.06219846809660184, 0.030318597869301793, 0.007348248951894368, 0.11051196686336412, 0.1493181538314437, -0.030475132609026213, -0.21614274831328675, -0.08388895425094593, 0.08503661737071916, -0.09766012560860388, -0.046157296933422555, 0.03385517004916303, 0.02538755165303418, -0.01223727853460079, -0.006999990571080903, 0.0013219320896008184, 0.0008525776738005578, 0.022506843079982478, 0.0004301457641959665, -0.05373076196124343, -0.09675672358658154, 0.03963546596291106, 0.1134479881499005, 0.1541289667945502, 0.024855166361185035, 0.12898508028871958, 0.256817042978606, 0.07862553333002452, 0.02987150328908423, -0.11700392537392382, -0.07582901356705961, 0.18016710656968304, -0.027120741454849343, -0.020055058294833287, -0.005006221789046129, 0.04198130355775529, 0.12036940302664087, 0.0647445223805569, 0.005899637093221698, 0.06608519837579546, 0.0026112045987340686, -0.010290265887299047, 0.0007110305039372068, -0.0007107247071652897, -0.0021993999635577305, 0.012950729833508768, 0.0178801126423974, 0.017065617021254344, 0.010583952387254226, 0.09293378011620565, -0.14172417426752923, -0.0137281074680663, 0.12540288472672073, 0.031812942069359335, 0.020157666634092353, -0.0578668805231624, -0.030777852195248857, -0.06113526538702779, 0.01928613384461456, 0.032393396163130285, 0.17209655214770156, -0.032656475802807304, 0.03901607580913814, -0.05270234857685915, -0.05481639125788484, -0.007217126357901614, -0.0028406911378961557, 0.062981374648365, 0.015117185127793134, -0.0026525544897115483, -0.001141937575338563, 0.00047171478704401484, 0.0007484793131160786, -0.0034984953605282088, 0.0012071249417389665, 0.006736743541122217, 0.11940121528990613, 0.1359332821399418, -0.023513722257955092, -0.1017608400141459, -0.08523338556561193, 0.08120832161449536, -0.01696974262239125, 0.06431523885216021, 0.008692002666010529, -0.1474346438120901, -0.057950617296816, 0.18396160083223703, 0.10710724878751827, 0.01692316535286328, -0.0766750869735904, 0.0023604708911044592, 0.012237380351158997, -0.038773721320091575, -0.007129036754560011, 0.05538780559302407, 0.01977731048562069, -0.006618176566787698, 0.004502232709249052, 0.00305290517520231, -0.0011589897766819306, -0.002711625000558992, 0.0028133928392475136, 0.010239581273324734, 0.0694519478687204, 0.06393333784643951, 0.057719675872778285, 0.016424030947080656, -0.038589637367741896, -0.09815092800519457, -0.1558846304142154, -0.13344844252274463, -0.20800165517607205, -0.14525753262791324, -0.10949331701639843, -0.01318899496664679, 0.02163422702254728, 0.013273647816375909, -0.05371594297732151, -0.013445003773660731, -0.08371977336927748, -0.05274098781041158, 0.02117163231064659, 0.012986345007270009, 0.008898785831322118, -0.0009240019583847043, 0.001424589237984409, 0.0013777230187239221, 0.0029440440854778794, -0.0024367721789247667, -0.03495495451529485, 0.006733022237379852, 0.026727575749160255, 0.08813620326737247, -0.02207521100613045, -0.0846523941386298, -0.10133162441151293, -0.1337241256775632, -0.23253901150905334, -0.347663137873356, -0.4350347245440156, -0.15180785674875094, -0.09460277259653367, -0.06905413994702975, -0.11765608537226263, -0.1684334688693709, 0.058964045234127696, 0.0951685228150417, -0.07854813033867636, -0.04334070600786856, 0.046297706020240074, 0.04626038971218828, 0.004215904836833726, -0.0014066450329585265, 0.0013208791537588824, -0.0025478061602801872, 0.001982780503480402, -0.0019989368047664377, -0.025467446855540938, 0.0006068709805921018, 0.035401391574902914, 0.03864936623241041, -0.035595387941797785, -0.0041201272349278605, 0.09487790022974034, 0.11662358388434049, -0.1743050640047514, -0.1928492144220653, -0.17924943622286169, -0.23084513571697884, -0.20942088775823295, -0.04672340472909716, -0.07300076039138356, -0.07758792765198332, 0.03307961338218467, 0.00041382977430733846, -0.08122681945974629, -0.009492815768927373, 0.02323922223423615, 0.00331022059107002, -0.004027681170577059, 0.0009971107246299167, -0.0005264705912007613, -0.002962637124374408, 0.004345207141442216, 0.0020825533431942473, 0.005832650321514171, 0.024067282978895727, 0.026854181140426914, 0.0030653636809149405, 0.014795550373666824, 0.02292828769839486, 0.02215541723944485, -0.07830206607887423, -0.08753393416621884, 0.0017896215560359466, -0.09217009557543142, -0.05776418087173178, -0.09112543816052496, -0.008831748056031164, 0.012673761695872492, 0.03643070484954333, 0.13515000518821857, 0.06426898940622032, 0.0038191354863216643, 0.0211743738868429, 0.004807602602569593, 0.0010217415025820602, 0.0023023768353863778, 0.0031892736539797903, -0.0015281818580415007, -0.005391116432645963, 5.4160494528558806e-05, 0.0025833360770730037, -0.0019636563676557095, 0.0021586708738340135, 0.002452902464096659, 0.0006833580828006404, 0.0056759639532452735, 0.00014153894374675484, -0.004590523066237155, -0.0010625932348092915, 0.0016050465127982864, 0.0007188529783591611, -0.004459923957294038, 0.012037375279118604, 0.020516744693547, 0.05816172003749333, 0.05727103646885791, 0.06348035988473434, 0.09272997121281176, 0.05940807882251279, 0.008335753892762313, 0.004569271792119359, 0.0026495236862789234, -0.0006867220913330569, 6.75625589451426e-05, 0.00019341306953721033, 6.509279049566629e-05, 0.0006178573403814171, -0.0012173108080408117, 0.0006851708551159462, -0.0013741974678394455, 0.00012142187871837835, 0.0011470063696516857, 0.0005340554615679272, 0.0008603240059565166, -0.002843191782410938, -0.0003355300889426132, 0.0013393607403490394, 0.002479233842804476, 0.0001497386525467271, 0.0002748421795193724, -0.003174043657825917, -0.004498755253461603, 0.023130765651772665, 0.004688669393784717, -0.0011345632810296148, 0.003084454798158604, 0.00114734504569056, -0.00569565875164585, -0.007606866177349658, -0.003057830829077904, 0.0006332679006252999, 0.00026378407829832847, -0.0020531452531299, 0.0006010534784999041], [0.0014144430476788687, -0.0004930128906531284, 0.0007770004723895355, 0.003528540014199431, -0.0012302449518839726, 0.004245457844920704, -0.001543793843679058, -0.0004219973918542393, -0.004272841494983757, 0.0022328195694288682, -0.000428929337681479, 0.0015230322906379945, 0.002435325273909188, -0.0010061291830648327, -0.0016208311430984982, -0.001493399642325576, 0.0003229712429477272, -0.0008684019383107126, 0.0013992016516247998, -0.0006602059619241522, 0.0006623203891460343, -0.002946762730546601, -0.0022517330749000776, -0.0009730910272760488, 0.0009060255583920536, -0.001806828763846736, 0.0012125796067577383, 0.0017830372723414245, 0.0007399098176495796, 0.0031357732079280486, -0.003275618307536284, 0.003068585519779869, -0.000982313136649882, 0.0005588119887130428, -0.00015841613721964088, -0.003188037618697652, -0.0008651308430632596, 0.00019850333097647834, -0.0010247140258015063, -0.0015117925478585832, 0.0042038933371589034, -0.0016615071040763146, -0.004722206293717451, -0.012115915854647134, -0.021563099727632866, -0.007439549758871189, 0.0029520346583489115, 0.006035735055718539, 0.006438882066405061, 0.00017216303386398624, -0.0021175583607877216, -0.0004939507546250701, -0.0024550666783068617, -0.0045210898489212266, -1.8212863047742164e-05, 0.001175342675925689, -0.0012289556286333276, -0.0005216841863135525, -0.0006784705658557922, -0.001110432383848449, 0.0021079981828863214, -0.0012319777288056842, 0.0004436328465017285, 0.0048498951410183375, -0.004076666017211065, -0.019128765883527462, -0.02153568888753739, -0.004745281930804716, -0.0013588338862463448, -0.015387589644429479, -0.012925692745605706, -0.040658996602513243, -0.07202745472293118, -0.015402857844305921, -0.009947569986218891, -0.002521739118299619, -0.004380601724069819, 0.007400182780342274, 0.004269098547462735, 0.002145248038295389, 0.0007298956273492409, -0.0029242276740211602, -0.003318478217377281, -0.0009488684483892028, 0.00014825455092905605, -0.0014092028850460168, 0.0020628934817395654, -0.00556426983166964, 0.00016630947572057508, 0.003450699290152904, 0.006462764112094923, -0.0004817654192341554, -0.06233792756177248, -0.06850443672457428, -0.04175180071773584, -0.0015156334087407025, -0.026755269623315713, -0.06796603011500203, -0.024367699161819342, -0.1627625954737774, -0.20105540079880388, -0.09121952525884076, -0.015489566725835291, 0.060448799327266066, 0.07380619864344055, 0.05839643180831821, 0.0593191524088898, 0.04857684869472049, 0.04279445772373758, 0.0026891167295237427, 0.0014505063270821733, -0.0006652445879194757, -0.0027006456427572435, 0.004545136615133214, -0.00015940256534700175, -0.004024075415073771, 0.0035349201898190255, 0.0029822854982336365, -0.014527305473800371, -0.05141422263207299, -0.08505538930436789, -0.09472173162266462, -0.08372365553137581, -0.1595341405516271, -0.16642036691414494, -0.15204570939541454, -0.15381392889037648, -0.2511992585341102, -0.23110179421754462, -0.0893853753997113, -0.09787968199413019, -0.001046831593101478, -0.04104739980398279, -0.04444820723208891, 0.05213759483557726, 0.07118665676049117, 0.03414516926184274, -0.0014644608144657692, -0.003606408096268641, 0.0038816186297251226, 0.0007738951098846474, -0.0015399473294736986, -0.0005533565334686713, -0.0027554407241651606, 0.0015055703464306033, -0.024800884682676213, -0.05047414560944183, -0.1005853707495244, -0.11242567382971454, -0.1509228944923735, -0.025094196467556826, -0.09419569882396236, 0.03573650997250827, -0.176283121064991, -0.2316900247698208, -0.23538749474757956, -0.11114103326901506, -0.09279488851538382, -0.11985479181031394, -0.053224192301774276, -0.0015793797158505103, -0.07835155273019392, -0.015681275849656534, 0.10335021475319162, 0.05891482705830655, -0.025653086022833126, -0.008397005461291011, 0.009699375374203597, 1.0601597998174696e-06, 0.001066862244309025, 0.0004152595840627266, 0.0025843897679173776, -0.006077546370333618, -0.03417023501688827, -0.10658493809709906, -0.140328734144823, -0.09404744825876991, -0.26845659618314377, -0.2772140806690797, -0.22403612953332872, -0.3418230922203958, -0.41037809772788436, -0.3995537099910548, -0.3790857059459175, -0.2692625422329157, -0.29150387178555187, -0.194853542990471, -0.1545878724269892, -0.1275579618563332, -0.11362321253470055, -0.034573484335351505, 0.033957470786628315, 0.005104535794953372, -0.04570468157065827, -0.0012648424896961263, 0.0067760327251061795, 0.0025710825351413194, -0.0005434294474620932, 0.002780590925844669, -0.007711708572660845, -0.007632950247790441, 0.04937079086431913, -0.07122434471355177, -0.07487394723316983, -0.13524247183581908, -0.13539229008841228, -0.2657326777025112, -0.13968540778860336, -0.3348140696720752, -0.20703943417358187, -0.4447069048417416, -0.6280353097013139, -0.36619556629645034, -0.2552096077826326, -0.396570038920832, -0.25063300305652375, -0.28365952974731234, -0.2508194673623872, -0.16655920569269267, 0.020717261994783145, 0.12118645733527932, 0.03338102343416495, -0.003593378830973209, 0.004783116628098378, 0.0005436311405511749, 0.002379856457396461, -0.003047021097533219, -0.011956580330696086, 0.012714898748199796, 0.090852333640987, 0.04801710631026203, 0.06552002667881794, -0.1617947024818081, -0.06904034926790573, -0.1123362190234384, -0.06663325292876363, -0.14289103490667995, -0.1164828442409038, -0.5777921284441171, -0.4780878217801389, -0.5161003785750958, -0.3479079668584356, -0.29413370466744254, -0.20614397322958167, -0.2576500902084771, -0.2098353581703971, -0.17871032477044374, 0.008422025627372936, 0.12991007644198382, 0.015732464518525186, -0.00356926181496144, -0.0026391057346533487, 0.0003152322479381016, -8.9744921004703e-05, -0.006921092878012935, -0.02163934188578668, -0.04503348124239979, 0.10031977686348777, 0.14228107846011726, 0.13105104713357094, -0.1782023453720026, -0.17606048516319595, -0.22613889406199592, -0.11114246201708168, -0.16006431269069027, -0.19587769493512527, -0.2991099723731426, -0.06989468035254454, -0.029215577413912588, -0.05215281826200204, 0.06726003393003525, -0.06051187540244126, -0.02628525068535154, 0.09961426188056596, 0.0037620573163758613, 0.0542243599731279, -0.01449994594939899, -0.07158543601292297, -0.04102565027310692, -0.03486847331545962, 0.0027519136682745333, 6.31765340579746e-05, -0.009075170492242867, -0.011603767146423942, 0.0230757180250206, 0.1517119782424261, 0.11748720420385504, 0.07072953709278168, -0.056510743863103514, -0.11554412530944215, -0.12133764805913129, 0.05428071665013724, 0.1637922682534808, 0.08032967936404509, 0.40531042823725233, 0.4112263550005871, 0.34852644160809254, 0.202342125974882, 0.14558644917499505, 0.069455561388228, 0.10824814378063918, 0.14808961442681656, 0.13019907879502413, -0.016253941666870202, -0.07146506487100186, -0.07885636457099811, -0.039252152442237544, -0.012423131138853813, 0.0012991563410665093, -0.004571317297602462, -0.001258910264729763, 0.001659425575886188, 0.09708758978342744, 0.27564791268151506, 0.12265358134147457, 0.08549362498194897, 0.15638627417421225, 0.1034528859824531, 0.2025347338001602, 0.048343872062340545, 0.29911338380122166, 0.21881173502772666, 0.47510567967530004, 0.46350848575362824, 0.42162519892392414, 0.22667363355693673, 0.1920295585665384, 0.3032483738161289, 0.07267245804906072, 0.12364742155777023, 0.06229343711295465, -0.053615086990768536, -0.06832330481029031, -0.034771552953930175, -0.01388098678651834, 0.0011179014238089497, 0.0009510247083526477, 0.0016981120478433624, -0.0006678930862739579, 0.0001572455690491268, 0.13170396519978114, 0.2914182862566589, 0.21576383906341084, 0.10005791197338469, 0.1686549351284111, 0.12327868678826785, 0.25714819335823486, 0.10868003455877995, 0.20282754410186632, 0.24217242397251032, 0.33739286475474917, 0.06359858989599806, 0.1328594757052449, 0.21143928774448678, 0.08795632087629181, 0.15116849588151257, 0.1301832081095194, 0.1019713829354543, 0.11402176977278392, 0.048455756121396944, 0.046060306645890454, -0.010703304966536183, -0.009143768820215734, 0.0019075198319918017, -0.002494902828002503, -0.0003213738559010696, -0.00036501444856845586, 0.009020782327958771, 0.18782137071708674, 0.24138488088723686, 0.18806454763925823, 0.08772769965672461, 0.010526981061919233, -0.10507447177761675, 0.017521483243672777, 0.05123998563373608, 0.09823825786182797, 0.14720187966337575, -0.06049038295919848, -0.1483657687379897, -0.05538485972436285, 0.18451146058959214, 0.18223348473237258, 0.2659749965862038, 0.2230749393299117, 0.1901707416543875, 0.1581079461027539, 0.20089320109985198, 0.11773543088296586, 0.04279325169300019, 0.012767209260620688, -0.0005833637826524717, 0.003325045269750043, -0.002863550349653676, -0.0028161732986705427, 0.030351859384683287, 0.11546130162671708, 0.14246629585700182, 0.10050242524881804, 0.05324248877629013, 0.08417071652439845, 0.018113265866701304, -0.026727430638150508, 0.09700142214119138, 0.13917403502663003, -0.07784836194731873, -0.11228010974472508, -0.12731628765925113, 0.0069579403441058715, 0.040371193604167216, -0.10471204711382612, 0.10925973130791354, 0.1375629927130259, 0.1364407904320771, 0.12041556746561254, 0.07726504868727749, 0.055366403358193206, 0.04970932626102244, -0.008015987022925422, 